<?xml version="1.0"?>
<opencv_storage>
<opencv_ml_ann_mlp>
  <format>3</format>
  <layer_sizes>
    324 16 10</layer_sizes>
  <activation_function>SIGMOID_SYM</activation_function>
  <f_param1>6.6666666666666663e-01</f_param1>
  <f_param2>1.7159000000000000e+00</f_param2>
  <min_val>-9.4999999999999996e-01</min_val>
  <max_val>9.4999999999999996e-01</max_val>
  <min_val1>-9.7999999999999998e-01</min_val1>
  <max_val1>9.7999999999999998e-01</max_val1>
  <training_params>
    <train_method>RPROP</train_method>
    <dw0>1.0000000000000001e-01</dw0>
    <dw_plus>1.2000000000000000e+00</dw_plus>
    <dw_minus>5.0000000000000000e-01</dw_minus>
    <dw_min>1.1920928955078125e-07</dw_min>
    <dw_max>50.</dw_max>
    <term_criteria>
      <epsilon>1.0000000000000000e-02</epsilon>
      <iterations>1000</iterations></term_criteria></training_params>
  <input_scale>
    2.5566927896149210e+01 -8.0437803560056109e-01
    2.4929213255588675e+01 -8.1054843444996094e-01
    1.9259205794535951e+01 -6.9481797037486182e-01
    2.4789349314909508e+01 -4.9390318963388252e-01
    1.6757863767757794e+01 -4.6974734431391735e-01
    5.1998542212279212e+01 -2.9057531065632081e-01
    5.0321120485660579e+01 -3.0857355944172776e-01
    5.1035251190357684e+01 -3.7280088048592025e-01
    2.9510430206668815e+01 -6.1452649683152272e-01
    1.0507941166003432e+01 -1.2969273668807688e+00
    8.0554172753241247e+00 -1.0453543044355369e+00
    8.6885346346409058e+00 -8.0436890957240537e-01
    1.3808662735946145e+01 -4.9706001957856477e-01
    1.0767299730668508e+01 -5.0915770843037400e-01
    2.1528274491753780e+01 -3.9351020607443948e-01
    2.1250635807417741e+01 -4.8284115761458768e-01
    2.0665227967191182e+01 -6.0815717647109868e-01
    1.4429555737651816e+01 -1.1080028895307035e+00
    6.5452288198349340e+00 -1.0190219837091081e+00
    6.8304750350054979e+00 -1.3974312594275442e+00
    7.3399994208363042e+00 -1.6956198225209957e+00
    8.0737773315364549e+00 -1.2040949389420996e+00
    7.8715982825991375e+00 -1.4312236202098001e+00
    1.2275771084093881e+01 -5.2697143277839886e-01
    1.4277014334199757e+01 -4.6902659386403395e-01
    1.4334014969207278e+01 -5.0585445867801215e-01
    7.5755232709388229e+00 -7.4006912024394733e-01
    6.8250801241753019e+00 -1.9604466179666902e+00
    6.6307715507063785e+00 -1.9564029414693231e+00
    6.5960954301662884e+00 -1.8473632922317060e+00
    6.8135742446573015e+00 -1.2396405370462389e+00
    6.8278069077410741e+00 -1.2043175974496216e+00
    9.3423198305983082e+00 -7.5241185895647167e-01
    9.3666147015783068e+00 -7.9220312078194954e-01
    8.8894834182137732e+00 -8.9599318506522607e-01
    7.0036041149470769e+00 -1.4622708768800701e+00
    1.0631870217263080e+01 -1.2137593446591302e+00
    1.0359326293076037e+01 -9.3030615653269999e-01
    1.3127191781513195e+01 -6.7275297760549357e-01
    1.7815834175645492e+01 -3.9755629879462229e-01
    1.0634591729856627e+01 -4.7565409218389254e-01
    1.7775881278342851e+01 -4.1131311860946218e-01
    1.6961159643148527e+01 -5.6037339045193035e-01
    1.7570491635264563e+01 -7.2236942141968918e-01
    1.3667441357237843e+01 -1.1962552124589168e+00
    9.7031264548287623e+00 -1.0708615786934284e+00
    1.2212596603496047e+01 -7.8615856402338069e-01
    1.2977807908936080e+01 -5.1216167632539034e-01
    2.0307901821313362e+01 -4.1271950105942196e-01
    1.3508865314908427e+01 -6.1277483322179571e-01
    2.2591719925834862e+01 -5.5064168079521048e-01
    1.5813527765743148e+01 -6.9893046670135950e-01
    1.4448212670315160e+01 -8.6959770181523188e-01
    1.0494475691823167e+01 -1.1059983231721167e+00
    7.5263804202045028e+00 -1.9186311512961849e+00
    8.4764554351576127e+00 -1.8718276036401278e+00
    8.2105119475999295e+00 -1.4863159007584927e+00
    8.1428963787686310e+00 -9.2340978938176521e-01
    7.0694215971313481e+00 -1.0601862122917867e+00
    9.1815427455334007e+00 -8.3305720837822428e-01
    8.2915269202696003e+00 -9.0104110309656926e-01
    8.5496412596420335e+00 -9.9868243874156526e-01
    7.2698528297728755e+00 -1.6006238221540883e+00
    7.3738545535083970e+00 -1.8228217266787723e+00
    7.7695390337175851e+00 -1.5115879159459960e+00
    7.5754333366689579e+00 -1.0093928575773190e+00
    8.3654403395806511e+00 -8.5611839173378623e-01
    7.5349374520721728e+00 -1.2667894544628517e+00
    8.6994076687819355e+00 -1.0176496126504415e+00
    8.2706435633674911e+00 -1.1861946371204424e+00
    8.7145075930373448e+00 -1.3998517195731630e+00
    7.2704721396822416e+00 -1.7094480901714146e+00
    1.3197298522683775e+01 -1.0622405375503037e+00
    1.8051173414004154e+01 -5.9861818575003534e-01
    1.8342817810802799e+01 -4.3199417498414788e-01
    2.2427656053863618e+01 -3.7782679409095166e-01
    1.0446433294634639e+01 -5.8289906273380432e-01
    1.3686469235563571e+01 -5.6955611493845992e-01
    9.9588409811365022e+00 -7.7814696285777107e-01
    1.0167900218572610e+01 -8.9762782816969977e-01
    1.0223530514164334e+01 -1.0923988319353151e+00
    2.3761703105685523e+01 -6.8307822249462768e-01
    3.7862728985052250e+01 -3.8909418145328023e-01
    3.8238215799971542e+01 -2.9459978979754209e-01
    4.2294785900124360e+01 -2.7317139301099325e-01
    1.5132530133384755e+01 -4.7968352088427135e-01
    1.9415584479582055e+01 -4.9056187947152097e-01
    1.2370054798894285e+01 -6.6229069763304571e-01
    1.5955453925056927e+01 -7.5514423003775499e-01
    1.8975533078486063e+01 -8.4066331198008404e-01
    7.4623422353743143e+00 -1.8309848166193197e+00
    7.3532669506766188e+00 -1.1812150346410029e+00
    8.5096505278779979e+00 -9.0272616144774909e-01
    8.3658172812467626e+00 -8.1720499817197911e-01
    6.6657199408615924e+00 -1.3214256432816369e+00
    7.1190454815132558e+00 -1.1900078832825520e+00
    7.2498629181404519e+00 -1.4752127424155577e+00
    7.6022897429644880e+00 -1.4913558789981891e+00
    7.5269599094742530e+00 -1.7680772230797202e+00
    6.2486550580053661e+00 -1.1721898577107330e+00
    6.9918669611346687e+00 -7.3628014594954572e-01
    8.8611316503222550e+00 -5.8600910118306515e-01
    1.0433642611063830e+01 -5.9705989089749878e-01
    8.1613003150324666e+00 -1.5917551580000402e+00
    7.8937579244642349e+00 -1.1561231036744608e+00
    7.4907410771584013e+00 -1.5035096038145825e+00
    7.5567306216356638e+00 -1.4840582896572281e+00
    6.7420673692640811e+00 -1.4771307305251593e+00
    1.0587088367383476e+01 -7.6462215513347587e-01
    9.5315732332787260e+00 -9.5295650947661426e-01
    9.2555216174348072e+00 -1.3964836871348896e+00
    1.0078498822040231e+01 -1.2840457197898125e+00
    9.8622543826500237e+00 -1.9655138544589741e+00
    1.3989143624856593e+01 -7.8487067305300551e-01
    1.5588062294636511e+01 -7.0110539958815987e-01
    2.0528901761356348e+01 -5.7532556560188264e-01
    1.2550809214439257e+01 -6.1089430929288813e-01
    8.2577859790635380e+00 -1.2907411900726011e+00
    8.7212888371975392e+00 -1.5482125187418414e+00
    8.7795812168028693e+00 -1.7119375378364963e+00
    8.3315079864655530e+00 -1.3127507059959049e+00
    7.9138635881183825e+00 -1.4176596077899482e+00
    1.1730358646183042e+01 -8.7850619630115490e-01
    1.3137508900150227e+01 -8.4201065845427048e-01
    1.3845169209975737e+01 -7.9917713458296546e-01
    9.0148800497684114e+00 -9.7090839852586386e-01
    9.2867638311567262e+00 -7.8441526622659119e-01
    9.5668610515260433e+00 -7.3184021188715820e-01
    9.9587570373822718e+00 -9.8989213099341045e-01
    1.0643366923165932e+01 -1.1085541212389418e+00
    1.0912680269759168e+01 -2.5279188744764713e+00
    1.0521684487343606e+01 -1.1350200266158219e+00
    9.8371225921070078e+00 -1.2402489438362179e+00
    1.1399661060474855e+01 -9.9725727425629640e-01
    9.9796490574938019e+00 -8.4287948911757771e-01
    8.5830455203421394e+00 -1.5124721182783705e+00
    8.7373068336536477e+00 -1.4976086564522397e+00
    8.5946676990633382e+00 -1.4448946808503362e+00
    8.5614723429012507e+00 -1.2305884720556552e+00
    8.1407283297994759e+00 -1.5934676620709785e+00
    9.5745364734982896e+00 -1.1583177982807717e+00
    9.5241984642246376e+00 -1.2713350659717979e+00
    1.0088623254841117e+01 -1.2042399728813764e+00
    8.8532912725005843e+00 -1.3501668630537265e+00
    9.0391211525035171e+00 -1.4324529721205266e+00
    9.8711935427440682e+00 -1.5692745454388370e+00
    9.4026241599374227e+00 -1.4437758318840239e+00
    1.0292914302470194e+01 -1.1279329876645900e+00
    8.9589443986805257e+00 -1.2869909855420485e+00
    1.3070954898457877e+01 -8.8135673315448204e-01
    1.1936752702031114e+01 -7.9701987687597176e-01
    1.4712238393831644e+01 -8.2118836542363149e-01
    9.7539053081719942e+00 -1.1083135424253059e+00
    8.9652027193844521e+00 -1.4758789931776113e+00
    9.6483499761576788e+00 -1.4428023889794197e+00
    9.6147556376460095e+00 -1.2165348505463158e+00
    1.0163620527281452e+01 -1.0503788066374411e+00
    8.9654795884740519e+00 -1.3940820015024362e+00
    1.0617622011651456e+01 -9.9611314244259941e-01
    1.0569210163091425e+01 -9.9968938707325838e-01
    1.3152824238699669e+01 -1.0256884338878633e+00
    9.2275565398866242e+00 -1.2028900535970064e+00
    8.9811346781945662e+00 -1.6481916849609732e+00
    9.5152833580565375e+00 -1.7129542428920284e+00
    9.2932165256613857e+00 -1.4205346485691093e+00
    1.0596967601509254e+01 -1.1663202822528920e+00
    9.3062421811280682e+00 -1.3950488763775575e+00
    1.1533999374387774e+01 -9.7257221538881411e-01
    1.0386976772572343e+01 -1.0179288744153179e+00
    1.2101870158695339e+01 -1.0637368218387162e+00
    9.1986202029357251e+00 -1.3219721147922028e+00
    9.4418748113804583e+00 -1.9112220589387612e+00
    9.6068249750754227e+00 -1.8661190296343009e+00
    9.2124538069631008e+00 -1.5750389699443297e+00
    1.0045714309968361e+01 -1.1508462652927689e+00
    9.1583967429645785e+00 -1.3864731290507790e+00
    1.0875869873622605e+01 -9.5461572130414241e-01
    9.5089531780196008e+00 -9.4603348695081912e-01
    1.0859068621606063e+01 -1.0438105969249261e+00
    9.8562245585976687e+00 -1.5363993247206134e+00
    8.8870795450767854e+00 -1.3308139344331236e+00
    8.7491983638594846e+00 -1.1186123029054538e+00
    9.9700695845523040e+00 -1.0632163822067875e+00
    1.0448143644455341e+01 -1.0222420478130791e+00
    8.2284973111541824e+00 -1.4076311846288916e+00
    1.0688145344117265e+01 -1.0824959697599974e+00
    1.0468257808713904e+01 -1.0986832494684435e+00
    1.2417333045002334e+01 -1.0124470132247261e+00
    9.9053023997926228e+00 -1.1548319813223198e+00
    7.9668917513075348e+00 -9.4153143971585007e-01
    8.3870413527017398e+00 -7.8545329297011401e-01
    1.0221562477465383e+01 -9.3338535874619011e-01
    1.0328836214604037e+01 -9.7071728768567622e-01
    9.0156226422627270e+00 -1.7942664886710062e+00
    9.6616383842198985e+00 -1.0727703803973174e+00
    9.8616757954010374e+00 -1.2227595898452510e+00
    1.2524107795014679e+01 -1.0500361787848498e+00
    9.7502624747314943e+00 -1.0097446765554758e+00
    8.5579085495252745e+00 -1.5890415554461754e+00
    9.1896084888043266e+00 -1.7951146723017009e+00
    8.9900240426207070e+00 -1.6640207281841495e+00
    8.7448646234109049e+00 -1.1822927168924071e+00
    8.3571565805716190e+00 -1.2633372518185275e+00
    1.2839831027950142e+01 -8.8937756924792777e-01
    1.1258221128834364e+01 -8.6681566387841791e-01
    1.1478588747896138e+01 -9.1333484445324686e-01
    9.4441903778304255e+00 -1.2661554224198308e+00
    7.4560106313676036e+00 -1.0631481689912339e+00
    8.2525078475222671e+00 -1.3234616687169440e+00
    9.4500238154934024e+00 -1.7663134815293302e+00
    8.3698874313326801e+00 -1.2802232790584223e+00
    9.2538164089483175e+00 -1.8970464376111082e+00
    1.3896841941502064e+01 -8.9272626862077664e-01
    1.3673159906454499e+01 -8.2982258889692595e-01
    1.2920006505339115e+01 -6.9098348020797118e-01
    8.6140848832356802e+00 -8.6825807938313770e-01
    7.2976256308048306e+00 -1.0036650361397250e+00
    8.8569934202536462e+00 -6.7883489114974060e-01
    9.6671283730934050e+00 -6.5564891631492916e-01
    1.0729164646211276e+01 -7.1253447947386572e-01
    9.7400863257948789e+00 -2.0729598470958908e+00
    1.0098846787290766e+01 -1.2295390106715047e+00
    8.1709128770232606e+00 -1.5834267821656332e+00
    7.9185696820038203e+00 -1.4266909164403241e+00
    7.0142565964578143e+00 -1.2307826131412611e+00
    7.5435629765147860e+00 -1.9151145076355554e+00
    7.6615260389025179e+00 -1.4784744860710612e+00
    7.9376064663922241e+00 -1.1278102015035405e+00
    8.5317146895725404e+00 -9.0773142200168699e-01
    7.7453859397681066e+00 -1.4079973708328972e+00
    8.7076543998431948e+00 -1.2352444736265966e+00
    7.9242960254153729e+00 -1.5686392626890735e+00
    7.6717417585953758e+00 -1.6304166919051932e+00
    7.5588154080442616e+00 -1.9254454455188668e+00
    1.9849127405108245e+01 -8.0977086791729325e-01
    2.5789811278141194e+01 -4.2223888630965528e-01
    2.6488589227827088e+01 -3.5240910062079617e-01
    2.6856269463855895e+01 -3.3704485571082354e-01
    1.2731013265465775e+01 -5.9856225445287359e-01
    2.5213218592483138e+01 -5.7665344861709333e-01
    1.6190720788413493e+01 -7.9874419769854577e-01
    1.9538858433795795e+01 -9.8118863319197236e-01
    1.9637830554866500e+01 -1.1006954091093646e+00
    9.4734618043992658e+00 -1.3267110618615476e+00
    1.0540284378174928e+01 -7.7365472814743086e-01
    1.3155649322742649e+01 -5.4407187968391191e-01
    1.4609041514326792e+01 -4.3195829184768153e-01
    9.4864674065782548e+00 -6.3155569878987827e-01
    1.3481683999338184e+01 -6.0650838324122314e-01
    9.4299004286886312e+00 -8.6096868922814662e-01
    8.7718032335853646e+00 -9.9955978027219383e-01
    9.4189815410465414e+00 -1.4718588502537020e+00
    6.8668528822497645e+00 -1.6904119388401138e+00
    7.1623142226041834e+00 -1.4161455378263526e+00
    7.8911375342082986e+00 -1.0648734988182333e+00
    1.0732899490436335e+01 -7.9327255422930998e-01
    9.2770937974338405e+00 -1.0185010020777672e+00
    1.1910823998729825e+01 -9.0680748899451102e-01
    9.0410370674283840e+00 -1.1325927918086394e+00
    9.4989380724196550e+00 -1.3566333653643119e+00
    7.2444763311007110e+00 -1.6210227102400894e+00
    8.3607974656238842e+00 -2.3033111359683733e+00
    8.9306063561340974e+00 -2.1206862281167718e+00
    8.7173665203987873e+00 -1.4464456998435229e+00
    1.0755858273000575e+01 -8.3954652155883847e-01
    9.2947731614090152e+00 -9.4311142551878446e-01
    9.9860071181880716e+00 -7.7222363204295941e-01
    7.4611755361885006e+00 -9.2261492982627313e-01
    7.6419591210195232e+00 -1.1266491048128899e+00
    7.7797524381266534e+00 -1.8557936594756284e+00
    9.5124442580090420e+00 -1.2470515568890355e+00
    9.7808943098432231e+00 -8.4818680171921124e-01
    1.3307340707044872e+01 -5.6833741470262245e-01
    1.9742023432483602e+01 -3.9559162542735593e-01
    1.3787229852044302e+01 -5.1933743363086227e-01
    2.2661145994656053e+01 -5.2889102964610146e-01
    1.3687915023643413e+01 -7.4408539204411062e-01
    1.1628628160044496e+01 -8.6894006028738113e-01
    1.0871013173043933e+01 -1.2356918307219462e+00
    9.8850360124724705e+00 -1.4217573871259126e+00
    9.6666286244930095e+00 -1.0820380272589225e+00
    1.1608857885704850e+01 -7.3376990392411479e-01
    1.6358073000332066e+01 -4.1735309843490609e-01
    1.2365118124582862e+01 -4.6191871607636015e-01
    1.7260800859280110e+01 -4.4690041509080403e-01
    1.1726444135294170e+01 -6.7433641050535997e-01
    1.0252464483324717e+01 -8.5658907962668240e-01
    9.5767685552242661e+00 -1.2281338332451963e+00
    7.4826333747480129e+00 -2.1718691417675742e+00
    7.7481781881861407e+00 -2.1813730066635921e+00
    7.4065585164140009e+00 -1.6529702723108191e+00
    8.0849083351424671e+00 -9.9616803325439407e-01
    8.4783091467106981e+00 -9.0215258211333904e-01
    1.2582052075613349e+01 -6.2024488479461093e-01
    9.2968307159876975e+00 -7.7999358106117900e-01
    8.3672340460434498e+00 -9.5625077540870929e-01
    7.4975253326733418e+00 -1.6686686659863803e+00
    5.9709356090782029e+00 -1.3145049847327119e+00
    7.0254802794850351e+00 -1.7692731431007986e+00
    8.2254907290189525e+00 -1.8245197758695300e+00
    8.2067683233630984e+00 -1.1936166399298542e+00
    8.8906989617854713e+00 -1.4658825538230595e+00
    1.6300474359564728e+01 -4.9386061561876093e-01
    1.3703194579477996e+01 -4.7820167090734800e-01
    1.0724938778529930e+01 -5.5436649334832500e-01
    6.6309696848881128e+00 -9.5667733898595364e-01
    9.8005407158087792e+00 -1.3849876651228132e+00
    8.2050713611708677e+00 -1.0913941572973791e+00
    8.4438861382126387e+00 -8.3396537519524283e-01
    1.2066200660296664e+01 -5.1596682249429271e-01
    1.0842356061727152e+01 -4.4756360094011066e-01
    1.6941921349355486e+01 -3.2619703625221302e-01
    1.5486838981842661e+01 -4.7112717560979678e-01
    1.4777372752774802e+01 -6.8236913452546699e-01
    1.1801836567595867e+01 -1.1924458440652641e+00
    1.7157178203029535e+01 -9.0551057200355822e-01
    1.3809409474452593e+01 -8.7216683576256659e-01
    1.0888709389421576e+01 -7.7020200793082372e-01
    1.7634136609747969e+01 -5.5017367012510909e-01
    1.3531264498691108e+01 -4.5275667048823570e-01
    2.6440691921252107e+01 -2.3808695115112913e-01
    2.3515903000259808e+01 -2.4265274958874505e-01
    2.8094137445601081e+01 -3.1993001913447078e-01
    2.0767415512562028e+01 -6.6660660096522828e-01</input_scale>
  <output_scale>
    5.2631578947368418e-01 4.9999999999999994e-01 5.2631578947368418e-01
    4.9999999999999994e-01 5.2631578947368418e-01 4.9999999999999994e-01
    5.2631578947368418e-01 4.9999999999999994e-01 5.2631578947368418e-01
    4.9999999999999994e-01 5.2631578947368418e-01 4.9999999999999994e-01
    5.2631578947368418e-01 4.9999999999999994e-01 5.2631578947368418e-01
    4.9999999999999994e-01 5.2631578947368418e-01 4.9999999999999994e-01
    5.2631578947368418e-01 4.9999999999999994e-01</output_scale>
  <inv_output_scale>
    1.8999999999999999e+00 -9.4999999999999996e-01
    1.8999999999999999e+00 -9.4999999999999996e-01
    1.8999999999999999e+00 -9.4999999999999996e-01
    1.8999999999999999e+00 -9.4999999999999996e-01
    1.8999999999999999e+00 -9.4999999999999996e-01
    1.8999999999999999e+00 -9.4999999999999996e-01
    1.8999999999999999e+00 -9.4999999999999996e-01
    1.8999999999999999e+00 -9.4999999999999996e-01
    1.8999999999999999e+00 -9.4999999999999996e-01
    1.8999999999999999e+00 -9.4999999999999996e-01</inv_output_scale>
  <weights>
    <_>
      -2.2809926481277887e-02 -1.6011376396806226e-01
      -2.2714432670982432e-01 -2.9889137592179777e-02
      2.2071565709778118e-01 -2.5863809505008495e-02
      -5.4976209367526216e-02 1.9993673818838192e-01
      -1.0631711956602603e-01 1.8425683494767593e-03
      1.0541873467128848e-01 1.2901997489338557e-01
      1.1143573726889819e-01 -9.2489866099331602e-02
      1.0835461110398595e-01 -9.4455048886599960e-02
      4.9482715565214282e-02 -2.5059341730700557e-01
      1.6218508970118492e-02 5.1452409335725688e-02
      -2.0926579747446001e-03 -1.7311887051364916e-01
      3.3002442906199475e-01 8.2400706390174425e-02
      5.9396450099991158e-02 -5.8300769428480028e-03
      -6.1673289998637880e-02 8.4368008562087926e-02
      1.4406839289792558e-01 3.2688565017665516e-01
      1.8111580192209858e-01 -2.2853533867514361e-02
      1.2471228768433457e-01 -5.7759122924933792e-02
      -2.2704287297330678e-01 -2.2338407833975918e-01
      4.7249503185684119e-02 -1.2476131025272894e-01
      -6.0253775663411578e-02 5.2080951073514825e-01
      -1.7595450272964588e-01 -1.1403209383161746e-02
      7.3152895535882501e-02 3.9906749033163234e-02
      -1.4546338529259340e-02 5.8690207989213500e-03
      4.0963434233397283e-01 -1.1118623271204543e-02
      1.9090636950177767e-01 6.4391602667964523e-02
      -2.0438204260331314e-02 -7.7377693493808533e-02
      -1.3935698488240944e-01 1.1995536692148165e-02
      -1.4140846434463283e-01 1.1976556068176700e-01
      -2.8767749793366171e-01 -1.5898274751111226e-03
      5.6843395727317403e-01 9.5087195070282404e-02
      6.5313680694794221e-02 -9.0773248239619839e-02
      -1.1604151862958888e-02 2.8354175540649124e-01
      1.6644329946941677e-01 4.8429419310749844e-02
      -5.0633270866454050e-01 -4.4334890373296437e-02
      6.6523423650946725e-02 -1.6349250108034022e-01
      -3.8056579328805645e-01 2.6615835385981390e-01
      -3.6403548720864362e-02 -1.1772447692952590e-02
      -7.7470516354052693e-02 1.1527168065996636e-01
      -3.1150739179187314e-01 1.5774247487515380e-01
      -2.5364604885090580e-01 -4.9873158215813569e-02
      -3.4718324207074691e-01 -4.9769974250106030e-04
      2.0313909120121026e-02 4.9325055941419910e-01
      4.4298279030458652e-02 7.0193369841921316e-02
      -6.6936572209852330e-02 8.8414711178942451e-02
      6.7918671555952020e-02 -1.5889115645770885e-01
      -9.1831551044808682e-02 2.9045647243625586e-02
      -1.8157305100240667e-01 2.1196695334039078e-01
      1.9086552686753466e-01 -6.6359781631285336e-02
      2.7436145179369453e-01 -2.7637813457182015e-02
      -3.7092446215877511e-02 -3.0892170174303785e-01
      5.7652706678461181e-02 1.3214083189654660e-01
      3.2488413977813400e-02 8.1093016067986079e-02
      -1.5427527267689806e-01 -5.6590129211776278e-03
      9.7800995470387286e-02 1.4646483863978621e-02
      3.5332047462805570e-02 -2.6357262842427770e-01
      -1.0360246813911799e-02 -4.2517614268267251e-02
      5.1894770180659699e-01 6.8186762352575064e-02
      -2.9146354886598430e-01 1.8473857449242975e-01
      5.4067535763495989e-02 5.0812981160535869e-02
      -2.4980637344150194e-02 7.1162330021879355e-02
      -2.2146742054715360e-01 -2.3599809225726374e-03
      8.2724013706335989e-02 4.2328849250944434e-01
      5.9974194306950646e-01 -9.6072782928278824e-02
      4.1757714461248326e-02 2.0954771354974824e-01
      2.4776139849300879e-02 8.1246536990441418e-02
      -1.7651292586824860e-01 3.4079302648548471e-01
      2.7191680391475082e-01 8.6780887940790183e-02
      -1.3446158231472577e-01 6.1424951675692008e-02
      -1.7726663889362648e-01 1.0088538533890151e-04
      8.3963321918768610e-02 6.1090036667242088e-02
      6.3983453557659931e-01 -6.9296561163024586e-02
      -1.8704150247125567e-01 2.1161598441507698e-01
      -1.3073965319118572e-01 5.8328303319168939e-04
      -9.7178428696007527e-02 -1.2349362536280380e-02
      -7.6100072207807748e-02 -5.6136116342286169e-01
      2.4241453943260172e-01 -1.3097202425196758e-01
      4.7788433229744375e-02 -8.2852906877118646e-02
      -1.0347103909839554e-01 -3.9233855810348833e-01
      7.4333844442930008e-02 1.3730841790407372e-01
      -4.4956935463394299e-02 2.7900420269578050e-02
      -3.7745942547339001e-01 1.5996155339743229e-01
      1.8345628003381761e-01 -5.7330584816718555e-01
      -4.0043207885955036e-02 2.2026314799091018e-01
      2.7739294142429888e-01 -1.6500551661091500e-01
      2.9854524029398405e-01 3.1162607979433032e-01
      -1.0408942587781747e-01 -3.4478691903608877e-01
      5.2112547058257019e-03 6.8237750345513692e-01
      -3.9317446728618810e-02 4.4280714603775410e-02
      4.3059999511082435e-02 -5.1663063722340774e-01
      1.1203410322938839e-01 -2.6625541143727560e-01
      5.7645507905709173e-02 1.0973271545362343e-01
      1.0466461848417807e-01 -1.1679830900229971e-01
      -7.9789431954355311e-02 -1.6404293230745159e-01
      -9.3322101273172003e-02 -6.3507310048518770e-02
      -1.6952317948953305e-01 1.2941931636809492e-01
      2.5983521579000243e-02 -1.9429674105999148e-01
      6.5325652945233390e-02 3.4017317555257179e-02
      -4.6775060335607604e-02 -4.9373534038788525e-02
      2.5089440532238760e-01 8.3422727747208131e-02
      -4.2193489344999592e-02 1.2858753886049076e-01
      -3.6456701786258483e-02 -5.4542853087769568e-03
      -1.0642926921802227e-01 8.6988530606607925e-02
      -2.5757402179744177e-02 2.1031527813936318e-01
      1.3585023403441782e-01 1.5449957297157735e-01
      4.7768872143201024e-01 -1.1063262594285054e-02
      -5.3326163487484257e-01 3.3017596955428702e-01
      3.7687510401431351e-01 -3.1664967491520302e-01
      -7.5094664614728035e-01 2.7134362277874920e-02
      -4.2926292812312805e-02 -1.3493780370657358e-02
      -9.6482306550418645e-02 -2.4989942095439248e-02
      -6.3335054210361549e-02 -1.5938118761402702e-02
      6.4321971963708799e-02 2.7275244778847929e-01
      -1.7140489915235341e-01 -3.1860071081194730e-01
      -5.1564717722466435e-01 1.0550166639689668e-01
      3.4111503990267106e-01 -2.2375510244857602e-01
      -2.8852396297300431e-01 6.9308602931411507e-03
      -7.0302697361677678e-03 -1.3911547107642487e-02
      -1.9121439834314891e-01 -1.4013539366080233e-01
      -2.4356954749496018e-01 1.4353250054409222e-01
      -8.5896592296562102e-02 -9.0937983587267308e-03
      1.9252387313179689e-01 2.8597538969738500e-02
      4.4052493559326722e-03 -5.5659022871347066e-02
      2.8843523609578986e-01 2.7206949299758604e-02
      -1.7170313603886586e-01 1.5629924095046296e-01
      1.9879693091576521e-02 -3.7866131445367800e-03
      -6.0014545438133386e-02 2.0937674473696927e-01
      -8.8217555864228192e-02 1.2881193590620518e-01
      3.6768550983271253e-01 5.7936599538609534e-01
      9.4990694495319550e-02 8.9878422558386614e-02
      1.7695537253291460e-01 -3.9080381968958536e-02
      -1.3392266975908668e-01 7.5567867343384106e-03
      1.3266494623007966e-01 -1.6805911634131904e-01
      4.6547947308345211e-01 -5.6600527050608550e-02
      9.2680200673912194e-02 6.3247899820451717e-02
      1.0492381325928321e-02 -4.8270648443654543e-02
      2.3869215691278861e-01 -1.8474281204564208e-01
      -3.0625368708839013e-01 1.1699967893899946e-01
      7.6764198287983809e-02 -7.7228067541760148e-02
      6.4754120154706052e-01 -4.9670078858769706e-01
      1.5266399700191935e-01 -3.7006308937799426e-01
      8.8704617401423144e-02 2.4480289434145701e-03
      5.0770165049416512e-02 2.0727018049417491e-02
      -1.8752507879703251e-01 -4.6639753233663567e-02
      -4.9833536895272162e-01 -4.9469157592756763e-01
      -4.2333961201176426e-02 -1.0182397121527206e-01
      8.1005079518503775e-02 7.6063774406064155e-02
      -1.7209688577440618e-01 -2.8659367970717353e-01
      -1.3461631520240716e-01 -1.9161738866735753e-01
      2.3622930356461358e-01 2.3504116898477473e-01
      9.0006341750033025e-02 3.2388721181405017e-01
      2.2251287249645296e-01 -1.0762949978970961e-01
      1.3267578744897651e-01 4.2595181115807568e-02
      -2.8556006440179291e-02 1.1185213011225864e-01
      -9.0760743468295690e-01 -4.4557206665694030e-02
      3.3826740983437215e-01 -7.3836889897395980e-02
      2.1947677881886632e-01 -4.6750508740291311e-02
      1.6841588649341965e-01 8.1681043828708402e-02
      2.9744827906433036e-01 1.7251538893166996e-01
      1.6072029519903633e-01 -2.2383853229007858e-01
      9.2920591663930449e-02 -3.2894635509449016e-01
      2.0899345167939537e-02 -2.9915296383625084e-03
      -1.8691169897772014e-01 9.9913985631379737e-02
      -3.1971709984381574e-01 3.8253460157175634e-01
      -7.7045594356173175e-01 1.0506792746932934e-01
      -5.8462462049880159e-01 -7.7508674712693792e-01
      1.7530277012469264e-01 1.2252400419929380e-01
      1.7827295068209051e-01 -4.0071493596054719e-02
      2.0459601623390083e-01 1.2487052151940972e-01
      3.5863928853459592e-01 1.7753859061598523e-01
      -1.5731685341416068e-02 4.7742926767224421e-02
      2.4220178055587899e-01 2.1495122902534115e-02
      -1.9494135750022773e-01 1.4220035852723881e-01
      -2.3231238763349321e-01 -5.8343230331113095e-03
      6.4093015442125714e-02 9.1963831612656491e-02
      1.1618046415028846e-01 -8.2620047396047835e-02
      8.8238561757990983e-02 -3.0894853274266564e-02
      2.6984456221273095e-01 8.3465471081035483e-02
      -3.7843440911759577e-02 8.6833253604942776e-02
      7.6818042663174857e-01 -8.7378262720808925e-02
      -8.7569850775513741e-02 5.5512734011457551e-02
      1.4193482959191688e-02 -1.4172409789504686e-01
      2.2585039173738922e-01 1.7807588043169506e-01
      1.5757630391022856e-01 -3.2434533727589598e-01
      2.3446731046555691e-01 1.0583093764505414e-01
      3.8710334779628397e-01 -1.5700709231280384e-02
      -6.5631077697834883e-01 3.3164495146219786e-01
      3.5545852697880720e-01 -1.2153242084187038e-01
      -3.7750275988278176e-01 1.7871182379152706e-01
      -1.8008660910252039e-01 7.1561345455464932e-03
      -2.2042078726504019e-01 7.3786780851891470e-02
      2.3671221137936257e-01 -3.9616263692098219e-01
      8.7538602681972041e-02 9.9504941450392737e-02
      3.1189883778040967e-01 1.4727476480052119e-02
      -6.6419863587817285e-01 1.7157658800406753e-01
      3.1155153043918415e-01 -4.4377719634478979e-01
      -4.1191059843190359e-01 2.9691052364075499e-01
      -3.1864835151983500e-01 -1.4726947795696410e-01
      -2.8913850804564611e-01 8.1739271111657186e-02
      4.9049611186434069e-02 -1.5924697063924451e-01
      -4.4703329681836365e-02 4.4271504186129418e-01
      -1.0887957590156128e-01 -7.7855373587394444e-02
      -2.4113476572894840e-01 1.4151761302622340e-01
      1.3930567410339523e-01 -2.6552634311842055e-01
      -1.6802444585157272e-01 -2.4002404960241297e-01
      -1.8606892121093802e-01 -1.3413657365299395e-01
      -7.0938575698073145e-04 1.5353802781151213e-02
      4.2452472329637392e-01 -2.4942611413809682e-01
      -6.9812706342481073e-02 1.3636815076114819e-01
      -1.6548025274332998e-02 -4.8184824158297550e-02
      -1.5138352742384084e-01 -2.3243313743381797e-01
      -9.0702649108523034e-02 -2.1596767961487620e-01
      9.0295841659870299e-02 1.4417733241909345e-01
      5.5843401817351390e-01 7.1770570295652814e-02
      2.5050588758488418e-01 1.4983192739047868e-01
      1.7993840548649120e-01 -1.3619278960502357e-01
      4.4020617802551315e-02 -1.5104326437181537e-01
      -2.1738945566808626e-01 -7.3935858570679011e-02
      7.4374638085993223e-04 -4.5875257836320127e-02
      -1.9363192541191740e-01 -1.5430231715809746e-02
      1.3383963846269092e-01 -9.8715796217818758e-02
      3.3496293616745824e-02 1.1731049723808441e-02
      1.1425908369506940e-01 -4.9588023936779954e-02
      -3.9626746231647053e-02 3.6506534946598140e-02
      -5.2509679650481345e-01 -2.3392621717721102e-01
      -2.2886120692291304e-01 -2.4288310512897662e-02
      4.0945838206743093e-02 -8.0711035087662891e-02
      -5.9055199649478640e-02 -1.8424132568333740e-02
      5.2060894022283470e-02 -2.6590999255633085e-01
      -1.3873685188218926e-01 1.2868648854696640e-01
      -5.2115642085947766e-01 -3.4743902849718961e-01
      -6.2443789257478385e-02 9.9893595033590563e-02
      -1.0359782979827417e-01 -5.4179520013142413e-02
      8.4982677490011191e-02 6.6554855389373790e-01
      -6.3241156722891198e-02 5.7498282794321780e-02
      -6.1441611705645043e-02 -8.3183437724447445e-02
      -1.1047593309323372e-01 7.6049605351920693e-02
      3.4096101128539441e-01 3.1015291300690384e-01
      -2.6494422204951740e-01 -7.4235906452394043e-02
      -3.0855778744112766e-01 8.6454863407881416e-02
      5.7623964732502857e-02 1.4463198509906511e-01
      7.9007465228094445e-02 -7.3624525626506010e-02
      8.0658319733985614e-02 5.7218729543826799e-02
      9.5443033882385869e-02 1.9834345476072227e-02
      -4.1978484311239955e-01 9.5901649538279496e-02
      1.3301633503058533e-02 4.2838705006039660e-02
      -6.6790529125749468e-02 -2.2788499955192172e-02
      5.3077267230003299e-02 -1.9594131653408625e-01
      1.4817033318705608e-01 -5.4610996103717176e-02
      4.3653131951470725e-01 4.6264436082962379e-02
      -5.4871146875774235e-01 3.7439959959242658e-01
      4.0520366872308528e-01 -6.6792509066978298e-02
      -4.8477823617805788e-01 3.2143585618520909e-01
      -1.9113173415647630e-01 1.5938063057837393e-02
      -3.0771996279634517e-01 7.0828001905087687e-02
      7.9121425308688209e-02 -3.7804614609846787e-01
      6.5512372458488885e-02 2.5875690392646827e-01
      3.5844916706957181e-01 -5.6606937085844376e-02
      -7.5648233137550008e-02 5.8153018260124874e-02
      9.4106648632032053e-01 -1.2870295450258915e-01
      -4.6300692173820862e-01 2.6888280451230029e-01
      -2.1015293649494088e-01 8.5822757811576209e-02
      -1.1103590782667729e-01 1.1750759426211785e-01
      1.2163416751244013e-01 -2.8003950909304032e-01
      -2.8106810207455624e-01 3.7494495387138643e-01
      -3.3653987314724354e-02 2.0511108103974890e-01
      6.7297618189017072e-04 -1.0575277646572825e-01
      4.1795113860131594e-01 3.5896446845353522e-02
      -2.0404879196967038e-01 1.3774717690607755e-01
      -3.8574429510395400e-02 -2.8310030705068396e-02
      -1.1706856065229013e-01 -1.3311069975100775e-01
      -4.9933510317979539e-02 -4.4290780933029711e-02
      3.1356480973226533e-02 -6.9286620182107489e-02
      -2.1901243610284948e-01 1.9524705833318259e-01
      3.0186582463277362e-01 -1.6815641998393069e-01
      -2.6923117601235452e-01 3.9584810668177005e-02
      2.3638166007958467e-01 -2.0076560360030293e-01
      6.0128144085039387e-02 -2.0589831862919536e-01
      1.5428909967263293e-01 -4.9110334487745544e-01
      -1.1909808170023287e-01 -9.8134566791286570e-02
      -1.3821780186534832e-02 3.3391884552048184e-01
      -1.1027247938732060e-01 -7.6229214088697664e-02
      3.5056698030812977e-01 3.8687539259473804e-02
      -5.9082181377193670e-02 -1.9379592489035047e-01
      1.6574560811067846e-01 8.0297663924470044e-03
      1.2312786878755556e-01 1.5632350105717271e-02
      1.0618403299981945e-01 -8.1583968061673034e-02
      6.0483000481556540e-02 -2.6966952086828544e-01
      2.2042992613780804e-01 3.1393461915674020e-02
      -1.4134753990553167e-01 1.5741046432069383e-01
      -2.2572295632565575e-02 3.2334265301382781e-01
      -3.7773495783567063e-02 1.3333339660885030e-01
      -1.1352621665121326e-01 -1.7009319342403662e-01
      -1.2901638363462747e-01 4.7124286463205933e-01
      -1.0604796825301098e-01 6.5873312934038752e-02
      -2.7279541690088266e-01 3.3370203301419760e-01
      -1.0389788511556530e-01 8.9708818369408111e-02
      -2.8335304266699879e-01 1.7596936605119692e-01
      1.0908103666884733e-01 -2.5720929603497789e-01
      -3.6174370691408282e-02 -7.9329504097967268e-02
      2.1103028263781431e-01 -8.9958518907178223e-02
      7.1754294930254148e-02 5.6271618619476338e-01
      -1.0418875113095426e-01 -8.3580000911183561e-02
      -8.6052849379897711e-01 1.0398495929550593e-01
      -1.1074591028042213e-01 2.9618845509633292e-02
      1.0030873688762741e-01 -6.6744095940716328e-02
      1.1898763980552990e-01 -2.8140571963261189e-02
      1.7265180892004223e-01 -2.6368143417229439e-01
      3.9807825856793660e-01 -3.1864949304382595e-01
      2.0285561570458535e-02 -1.8548273123141215e-01
      -3.6972688146469401e-01 2.1458199579719860e-02
      -3.6542858021943408e-01 2.0043409296333442e-01
      -3.1760569430309957e-02 -1.9906663514254763e-01
      3.4134123461885019e-01 7.8021834233317364e-02
      -1.9116310353126412e-01 1.4658652082722387e-01
      1.8888756430645001e-01 -4.1830769193578343e-01
      -8.3215288833959761e-02 3.1827050391707346e-01
      -3.8128659435413804e-02 -7.0562996203878993e-03
      -2.1643892853343777e-01 -2.6380666930158708e-01
      -1.5721788671956949e-01 -8.1351458215955449e-02
      -2.3561809701974006e-02 -7.5567747978306343e-02
      2.7645722516958937e-01 -7.2354053050365285e-03
      -2.1733753186263111e-01 3.8884925373824086e-01
      3.8714188737437827e-01 -3.5042436205398148e-01
      -2.9374443122895189e-01 4.3109193948283214e-01
      2.5497021392777969e-01 -1.1049404629167734e-02
      -1.4780790796161715e-02 -4.2581600915879492e-01
      -2.3479916570503414e-03 -9.7517039578143172e-02
      -7.5243045675388975e-02 8.1733295802710368e-02
      2.2016310675238815e-01 3.5339845199997534e-02
      4.4534158503739957e-02 9.5281389414519732e-02
      -1.2686804072366892e-01 -2.6565440678853364e-01
      4.1489409764828722e-01 -2.3487676716234560e-02
      3.6865463645674112e-01 -4.2944315454632532e-03
      -2.0402731100855015e-01 -2.3442019812228300e-02
      -1.5684418511153675e-01 1.3178683514912326e-01
      -1.4397202475480497e-01 -2.3838630458633599e-02
      -4.4072657048027197e-01 8.0109569409773956e-02
      -3.5718286289484584e-02 -1.9933386228621985e-01
      -2.8709707626385922e-01 4.1732035431116248e-02
      8.2922116469485707e-01 1.6840093148532065e-01
      1.4747944693691700e-01 -5.0538766188467601e-02
      6.8767789768491877e-02 -2.0468663408857357e-01
      -3.4380062826595337e-01 1.6651750904316906e-01
      -8.5885214262630585e-02 -8.0296585509430640e-01
      -9.8149932297648179e-02 -1.2180525183293896e-01
      -1.3108356146193149e-03 -1.4368318446235614e-01
      -2.1420017081025094e-01 -1.6739292912536846e-01
      2.8412395426227938e-01 -1.5051277558325443e-01
      1.2794792150889711e-01 -2.5892476979606877e-01
      -3.9112576939823018e-03 -8.6633473179522719e-02
      2.8776159695692381e-02 1.1491410588450469e-02
      -8.7516371576552413e-02 -4.4063160810369878e-01
      -1.2818880932082924e-01 3.8599737592204870e-02
      7.1187460281008794e-02 -1.1678777089944643e-01
      -2.3212571832154333e-01 1.4563036378144897e-01
      3.7534984314848641e-01 -1.3264067243139877e-01
      -8.3472298218070368e-02 4.4045280557462141e-01
      -1.0560464375901837e-01 -1.1295057289144581e-01
      -1.9329954658250331e-01 1.6498076499612246e-01
      -2.4182825701604599e-01 -3.1312769044794553e-01
      1.4992551686989181e-01 -9.6987607561217160e-02
      -1.5246545380861551e-01 -1.2528461873261892e-01
      2.5855329444652037e-01 -1.1437092773295678e-01
      -1.6443285908093316e-01 -2.7828664062153069e-01
      -5.6255943974752631e-01 1.5878505273712060e-01
      -3.5007215255218960e-01 -8.1364937862838035e-03
      -1.0756688618949700e-01 3.9098760325149268e-01
      -1.2512663686850201e-01 5.8831081404563002e-02
      -1.1911097913647375e-01 -2.3630467560805440e-01
      2.0069866725358654e-01 -2.2031497519465482e-01
      -1.2943057863949448e-01 -9.5754546334454474e-02
      8.6057109025592965e-02 -1.2514179264091813e-01
      1.4671346737349820e-03 -6.5353944612466366e-02
      -2.0678131524568705e-01 -1.3490954771142841e-01
      7.7360338231687170e-02 -1.7964816752744997e-01
      -6.7474288676131838e-02 -7.3531062003932474e-02
      3.4987565589480490e-01 -5.0470048483110397e-01
      -3.1059169675023712e-02 -1.9932830605488494e-01
      -2.1635737226435650e-02 -1.0487897817983787e+00
      8.6731098423276878e-02 8.0416147253174794e-02
      -1.0476918251191607e-01 -1.8539357764651213e-02
      -3.1926354738210344e-01 9.8616358280088301e-02
      5.7166987716924200e-01 -8.2507425293909351e-02
      2.0228407567360024e-01 -2.5323353762820390e-02
      3.0522698300265416e-01 -4.7030949579920378e-01
      -1.7012057099006483e-01 5.4709059182479466e-02
      3.1912057989919342e-02 -4.4470449950368818e-01
      -1.3713890739914503e-01 2.6206766866616460e-01
      9.8790150080906719e-02 -9.9187103584024473e-03
      -2.6235458781630677e-01 1.4486370511017510e-01
      5.6493985299645921e-01 -3.3595904609051944e-02
      1.6989701330188367e-01 1.1841548455065221e-01
      -1.6291138563796792e-01 1.1154563351649098e-01
      -3.2753433653165848e-01 -6.8440468223487413e-02
      3.2833751620997359e-01 5.1883468132012729e-02
      2.0983735974923712e-01 4.8205253454871960e-01
      3.0912694683651487e-01 -2.2212091140745957e-01
      9.0385498550263649e-02 1.9578106500025405e-01
      4.5964863472827175e-02 -5.9656520218220077e-01
      -9.5007657995146780e-02 7.0972428947902477e-01
      -9.7566124139435828e-02 -2.5019137631298712e-02
      3.1944151385477743e-01 -4.9844396095017784e-02
      -7.9327757401235455e-01 3.0112968954415326e-01
      2.2580397080444362e-01 -4.2002658629392314e-02
      -1.7418188046807331e-01 -1.6615941741055140e-01
      1.8387866289718183e-01 6.4342595617560963e-02
      1.4161585269918779e-02 -2.7910606587197007e-02
      3.0857451684481907e-01 7.1237839768346037e-02
      -9.1967091563157230e-02 3.6860889345146897e-01
      3.0977981951962380e-01 -4.5234424757400699e-01
      -4.2876734379490911e-01 2.7197673689847646e-01
      2.9825345290712635e-01 -8.4010904398071892e-02
      -3.9558114094528030e-02 -2.9229166789325967e-01
      8.8915339860312720e-02 3.3688648815754169e-03
      1.0930394036234241e-01 8.9428818189154560e-03
      1.0402227397013063e-01 9.1640628026295551e-02
      -1.5852339580391753e-01 1.7317784336069138e-03
      -1.0786770585821193e-01 1.8493140383186005e-01
      5.5186776330338090e-02 -1.0093092211017148e-02
      1.4487258019994698e-02 -1.4777827594929030e-01
      1.4292573328006369e-01 1.9755991086801686e-01
      -1.0911194973600091e-01 -2.5185105531556384e-01
      -4.9766995561331789e-01 3.3387748381696331e-01
      -7.6804694067567347e-02 2.9728238497286119e-02
      3.8648660907687094e-02 -8.4252246215098789e-02
      -1.3663052248920377e-01 -5.5202955320599739e-02
      1.6028017944327660e-01 5.1492403954801497e-03
      -1.5087071484369444e-01 -2.3182926161567993e-01
      -2.2126227439741306e-01 -3.3896446897684396e-02
      -1.8418343686376376e-01 2.1787782378112214e-01
      -3.7467486147042506e-01 2.6223552082985030e-01
      -9.8182461044389838e-02 7.2801072701486044e-02
      4.2535696914701671e-01 7.3668241611132654e-02
      3.6728144586905881e-01 -4.9995868909335572e-01
      -5.7372051596196606e-02 7.3634363994342690e-04
      -8.7727792836563692e-02 -2.4136074704466676e-01
      3.8215749540331917e-03 1.5316010966644426e-02
      5.1822974571393635e-02 8.2874766925671473e-02
      -3.1945578214555279e-02 -1.5984935638157335e-01
      1.5039854616960699e-01 3.7494243359646351e-02
      -1.8861602301070693e-01 9.7207278333951624e-02
      -3.4337351422234685e-03 1.0128947874053380e-01
      -2.4694448374875466e-01 3.9022114185081658e-01
      -5.2998808610546000e-01 -1.6438463585989482e-01
      -3.4360196243667679e-01 2.0575134863911088e-01
      -1.3205118189171328e-01 -1.2616658764290165e-01
      -2.5179511904417301e-03 -5.2715261826996151e-01
      -5.7817779476111518e-02 -5.6108063716479126e-02
      8.6470868547076543e-02 -4.5553527308164155e-01
      -1.2585210145079823e-01 9.7333826210508165e-02
      8.9043979592383818e-02 -7.9500515526472276e-02
      -4.0380803809892840e-01 1.2935008729969849e-01
      -1.7731294988550131e-01 -2.0521427566591202e-01
      2.7731386661713861e-02 -4.7251912009885565e-02
      1.0751430378729115e-01 -3.3188634638389480e-01
      9.1473911634231561e-02 9.0649016911925687e-02
      4.8996516827009706e-01 5.8133562829218291e-02
      -3.3563291948443719e-01 2.0754648959029967e-01
      1.2300938475314591e+00 -4.8918485115209437e-02
      -3.4367628221900953e-01 2.6382063407819101e-01
      -1.3424896857617205e-01 2.2962292282049002e-03
      -7.2845178038651162e-02 2.1131066569035381e-01
      2.0539233234258017e-01 -3.0554376763880431e-01
      5.4318097122167661e-02 3.2699044325672044e-01
      1.0121302697961211e-01 1.8555849764791466e-02
      -2.6143768364305253e-01 1.6199158628702651e-01
      1.1389621139343480e+00 -2.9457349855665360e-01
      -6.0999080812258355e-01 2.4666790864474653e-01
      -1.7857369210954563e-01 9.9720792966770996e-04
      -5.7751911588859658e-02 3.0543833030283574e-01
      1.1605872939045196e+00 -4.0945588633231550e-01
      -1.2753700049623651e-01 4.9211433431088192e-01
      -1.0889393243221877e-01 -1.4745789297701464e-01
      -1.6316627510600840e-02 5.6138860385993652e-02
      -1.3156695547767647e-01 2.3959061799675144e-01
      -3.5984281233638471e-01 1.1123253304692057e-01
      -4.3210564278972069e-01 4.7493476489971966e-02
      -1.7974285524163525e-01 -4.2484341599940773e-02
      2.7196463266570152e-02 1.7687540051484660e-01
      -4.4720249232027734e-02 4.6164474729343496e-01
      -6.4788366068158729e-02 -7.2880784729508416e-03
      -7.7715674192916718e-03 -1.7113459363939748e-01
      -2.9216947871699267e-01 3.1519720391415673e-01
      1.6207503746554433e-01 2.5276027210170099e-01
      1.1353484446276495e-01 -1.6805553001477294e-01
      -2.2370161911425585e-01 -2.4802032675275759e-01
      4.3655883087090730e-02 -1.7102390971269485e-01
      -2.8867226155022069e-01 -3.5715074556085918e-01
      -3.3320528128868443e-01 2.8828924250586929e-01
      3.2522219329097957e-01 -4.6671373756897244e-01
      -9.6651866770292116e-01 9.2065309805492726e-02
      7.6326075559939466e-01 1.1669176836670127e-01
      1.6729157504121234e-01 -3.6999895029962238e-01
      1.9821586601343114e-01 -3.2690459705608119e-02
      -9.9917498299938359e-02 -1.1054962049477193e-01
      -1.8104479389456454e-01 -2.1240372327094417e-01
      -9.7533145269439805e-02 -5.9316965930759635e-03
      8.2478960472939067e-02 -6.0824808363737948e-01
      -2.4506169314710227e-01 5.2725111947940873e-01
      1.7838052252707984e-01 -6.8566157021708651e-02
      1.2866112555428616e-01 5.0926655419175404e-02
      5.9476850868765502e-02 6.1897676156850615e-02
      1.6561942301707769e-01 7.8088754501708324e-02
      5.0571384242857387e-01 1.3966272162678361e-01
      -5.4840775625116384e-02 -5.6121127930356309e-03
      -3.6261084402476779e-01 -7.5478244533817893e-02
      -1.5836573732607392e-01 -4.5257199808294693e-02
      4.1114188809775833e-02 3.4316698544575419e-01
      1.9097456733892565e-01 1.9817144450318033e-01
      -4.8975767834602418e-02 -9.8306089630720739e-02
      -3.2210942100867418e-02 -2.3448897529436172e-02
      1.1945166779297164e-01 6.0918177010381453e-03
      -2.1607093610797259e-01 1.5589479516794455e-01
      3.3175022676891797e-01 -2.1112663946712068e-01
      -3.2246670047958968e-02 -4.2097717834680010e-01
      7.0965456394382787e-01 5.0753048976443782e-01
      1.4925565670174146e-01 1.8425435563954484e-01
      -6.2500421900334752e-02 -4.0570545685967419e-01
      -6.7436454868509119e-02 1.1383976288827367e-01
      2.2559538097659293e-01 -9.6481210182795207e-02
      6.1231439330996999e-02 1.8151756480499529e-01
      1.5724213966138906e-01 -2.8736203603782451e-01
      7.8181692210853457e-02 -7.5560034641031171e-01
      2.3720506997761343e-01 9.4921598839286958e-01
      9.2555851000691289e-02 -1.0500105141935631e-01
      -6.8898930245519449e-02 -4.0044292368916845e-03
      -3.1532468449710982e-01 -2.1109541775387600e-01
      2.1588963667537261e-01 -3.3926521246180903e-02
      9.1427983904592405e-02 -1.5549910077685139e-01
      -3.6454042896300609e-03 1.8468779334547542e-01
      6.7850440526530095e-02 -6.6697879634584023e-01
      -1.0125812158408427e-01 -3.4964713079243120e-02
      1.6662762679258589e-01 -2.3168024261941952e-01
      -8.4175820622377398e-02 8.2773793135342472e-02
      5.7249880417301668e-01 -2.6554642528726863e-01
      -1.0727511493545015e-01 3.9708184762729609e-02
      -4.7202576125960946e-02 3.6925077806633844e-02
      -4.1428024962138094e-01 6.6430511771910186e-02
      3.2069274279690640e-02 -4.3712021958061403e-01
      -2.6528606957982603e-01 -9.8519584443214528e-02
      4.9547863179932233e-01 -2.1334710709292079e-01
      -1.2925791231680378e-01 -3.5366794792261345e-03
      5.1564876656051049e-02 -2.7622307260289369e-01
      -3.7106410971235387e-01 2.6761713465403969e-01
      -9.4443987319402317e-02 7.1581759322087921e-02
      1.5006254862817098e-01 -9.8075519429800473e-02
      -4.2245613656213077e-01 3.0388897512539464e-01
      1.0734877059307143e-02 -6.0451988983276451e-02
      5.3781473814992257e-02 -4.8976208993101994e-01
      1.2841703141561481e-01 -4.1071198973459531e-02
      -4.0478703232098741e-02 -6.2248488174313180e-02
      -8.9317130397091632e-02 2.4483111294174092e-01
      -5.5285009616927061e-01 1.9249615521072472e-01
      3.6821758321808512e-01 -4.3579189220797682e-01
      -3.6122093514871623e-01 4.2857193660078924e-01
      -3.9558123601616105e-02 -3.1257616385598724e-01
      -3.7204930780929610e-02 -2.9245572602384029e-01
      8.9648550575880406e-02 -1.1906894597539995e-01
      -1.1909817868613129e-01 -3.1602718786717818e-02
      8.6960963357794865e-02 -8.6455639887997413e-04
      -6.1993396421397298e-02 2.1630327735189139e-01
      -2.7258247167654021e-01 -1.2262161243498174e-02
      -7.2848439597179696e-02 2.7225511609500969e-01
      -9.3650177018851269e-02 -5.0188028535471024e-02
      -3.7032621434098134e-01 1.5439853692499245e-01
      -2.5646788535545711e-01 4.6027088693284979e-01
      5.6684162727060861e-01 3.6981802716935616e-02
      2.1085039365628156e-02 8.1136568904314449e-02
      1.8638333819275180e-01 2.9793988058343978e-03
      -2.0817615118736887e-01 -2.4061901356715740e-01
      -5.1001765371427432e-01 -3.4384255789194608e-02
      3.5040862069395978e-03 -9.9269687485773889e-02
      -5.7402907259048917e-02 1.7086063124570289e-01
      7.6895923635428784e-02 -3.0389598945762472e-02
      -8.2637230490579097e-02 3.7417454114803746e-02
      9.6984927151951950e-02 2.6874807848335375e-02
      7.6645768709584283e-02 -9.3330964436378283e-02
      -3.2707120808589385e-01 -1.9787665980328428e-01
      -6.5539245465584955e-02 1.5076310034240437e-01
      1.0205757678515215e-01 -1.4989935987185388e-01
      9.6833445651739701e-03 -2.1633290834283744e-01
      -1.4765843522490985e-01 1.5035105223436485e-01
      -3.7296355688698823e-01 1.9332112905399465e-01
      7.9482704120094699e-02 -4.7029513116092762e-02
      -4.9539299229572720e-01 -7.6510750168908170e-01
      -1.0357276088506735e-01 -7.0030184065732071e-01
      -1.9326278494377425e-01 -4.8896609002115410e-01
      1.5749964422956172e-01 1.1901790017744150e-01
      -2.5208042547807796e-02 -5.8609304927451505e-02
      -4.0347786691041893e-01 3.5112312320931316e-02
      -4.4015980969027241e-01 -1.1566299961999171e-01
      2.3184929030646229e-01 -8.6970510443388757e-02
      -1.1792454101598393e-01 -2.6545175425867562e-01
      -2.0120389727354273e-02 9.6546658550449416e-02
      4.6995152414560599e-02 -6.4097187344956175e-01
      -1.3279018815689697e-01 -1.4371750308554168e-01
      2.2579765772089238e-02 -1.3828270054634094e-02
      -2.7385994227659805e-01 2.4450381678441846e-01
      -2.7574301080684399e-02 -3.0086346651642248e-01
      1.6353611374873389e-01 1.0611738152570940e-01
      -5.7990157145588903e-02 2.8518821049555065e-01
      -4.8941206614039487e-02 1.8117996593980001e-01
      -1.1830814651138730e-01 4.9992649969338909e-01
      1.1176783364435951e-01 3.2243626575311435e-02
      8.4382607438078502e-02 -1.5703343752904392e-01
      3.4619829783421874e-01 1.0483307808562786e-01
      -8.3160562115082748e-01 -2.9075548897870687e-02
      -5.7547713935185853e-02 3.4048356469323732e-01
      -3.8326022756724876e-01 -2.4090127237232715e-02
      -1.6190253455865761e-01 -2.6492481845232008e-01
      5.8122283831036264e-02 -1.3893673788884664e-01
      3.9283076463516325e-01 -1.5494614531772666e-01
      3.0196689941000474e-02 -9.5787856147001825e-03
      2.2412765276605589e-03 -1.5800891547594295e-01
      -1.5042165254377751e-01 -6.0986880096376442e-02
      -9.3236878943363508e-02 2.5716555858063084e-01
      -1.2128369562083209e-01 3.7066776816660950e-02
      -3.6982602837577172e-01 -1.5291631936945349e-01
      9.3037305239215828e-03 4.0358983468036673e-02
      3.8133579736277590e-01 -1.4082408378596856e-01
      1.9443863534296790e-02 -2.2157466563475689e-01
      -3.0641514229521070e-02 -1.1696802684179153e-01
      -4.1955045482586419e-02 -1.3487969268874891e-01
      -1.0895613733437097e-01 -5.7199361987436348e-01
      -6.4955628638518781e-02 7.9758705300874509e-03
      -1.2554176944920128e-01 1.5651482259339217e-01
      1.9610709377257504e-01 2.2407591267070140e-01
      -1.5186540082126634e-01 -1.6900289920249199e-02
      9.8380874650998443e-02 1.9135687833343834e-01
      -6.6258599626204354e-02 -1.1138815635756175e-01
      -2.0753984931456287e-01 4.0940205412806102e-02
      -6.8416551065629119e-02 6.4060667286373996e-02
      3.4078811768463238e-02 -1.2518275123064551e-01
      -3.0073941545562910e-01 -6.7385196174938114e-02
      2.0477262633697410e-01 2.0228604994845581e-01
      -2.0706263037598149e-01 -2.1628517029933481e-01
      -4.6140262006295757e-02 1.1261682643247858e-01
      -1.3210417228962723e-01 9.8492148454058306e-02
      -2.9442090993320996e-01 2.0618177210302016e-01
      -1.0527800183531139e-01 1.0981239772444817e-01
      1.5105789624831320e-01 -6.0214155105080727e-02
      6.1916405033168698e-02 -1.0502880002233375e-01
      2.2928531573791944e-01 2.0132107351104278e-01
      -1.5937130089421048e-01 -8.9757980840704507e-02
      -8.1168906224941731e-02 1.5420753935034981e-01
      -1.3651129238652021e-01 -3.8911987483005949e-03
      -1.0762900827567978e-01 2.7359684149065489e-01
      -1.3301795656242013e-01 1.2223190399638995e-01
      1.8995814757581453e-01 8.3342018255796013e-02
      2.0522949573360802e-02 1.4631128974656760e-01
      1.0482733510067584e-01 4.0401492460967012e-02
      1.8645808344215555e-02 3.9992172959209669e-02
      3.9096965712449715e-02 -1.4691419597467248e-01
      1.9761922370212756e-01 1.2536051568663564e-01
      1.7995099897373568e-01 -1.5571985668355293e-01
      -2.2476659469324058e-02 9.4344633021040014e-02
      4.6834083408163474e-01 8.1519536486315380e-02
      -5.4803963666898929e-02 3.2560289113278479e-01
      -1.5069659903112873e-01 1.4316501797813158e-01
      -2.4925997419365165e-01 1.8548552589672690e-01
      -2.6155453987969102e-01 -1.6437714500175510e-01
      1.6919607285050395e-01 2.1775062762651060e-01
      3.5816259876451723e-01 -8.5087863845327405e-02
      8.6794484814071093e-02 2.5669116918363855e-01
      1.9796710701967962e-01 1.5250189306378889e-01
      -2.0458194232327503e-02 -7.5136605888957098e-02
      -1.3537077575768722e-01 1.7729701491400826e-01
      6.5338051411978362e-02 3.6467796886261422e-02
      4.0327892947456506e-02 -1.4598524762357692e-01
      2.0068967199843357e-01 3.0089569379768777e-01
      8.2073779629932342e-01 1.8122481280877656e-01
      8.7694452521365537e-03 -1.7230937617887507e-01
      1.1638863062820079e-01 1.5254412711512666e-01
      1.3454437545599310e-02 -2.9720844401435997e-01
      6.1974600290977448e-02 2.4034066418106542e-01
      3.6455116319124459e-02 6.3772654951264454e-02
      -1.0878189008151899e-01 1.3834104418638722e-02
      2.2857138771222046e-01 4.0210098804591438e-01
      1.2049870309723332e+00 -2.0139016793718942e-01
      2.8553556618089199e-01 4.9173459625240196e-02
      3.2648802610384187e-01 8.0817474743916581e-02
      9.3471877302436328e-03 3.6930820452685942e-01
      -4.1460413838058284e-02 3.3067018996356619e-02
      -1.3525271173971171e-01 2.4077226063271756e-01
      -1.5256970577317130e-01 1.3630836020504302e-02
      2.1137162335874674e-01 3.0774968612880932e-01
      9.1963543941318471e-01 -2.3826894171052901e-01
      2.0962573305549312e-01 -5.0278105974039020e-02
      2.1462927253812514e-01 2.1330673277404613e-01
      -1.3444124369172233e-02 -1.5176343728273189e-01
      8.9035584004776916e-03 1.6246642033930524e-02
      -1.5583871490413770e-01 1.5427232180251824e-01
      -1.5701419795860846e-01 -1.6540995557736105e-01
      5.0489574377788493e-01 2.1303131625146521e-01
      4.4083871851787254e-01 -4.1810206790517868e-01
      2.4574109797856097e-01 2.9715786210743261e-01
      1.6022884958808348e-01 2.9627702747131174e-01
      2.2801666722915673e-01 1.1777231360532871e-01
      1.8373260615748413e-02 2.3057366447820030e-02
      -3.6921806463971305e-03 6.3686398372795869e-02
      -1.5689940318129603e-01 1.2730536414095989e-01
      2.2981765449107344e-01 1.5257671695452210e-01
      3.7211565297013188e-01 -1.9404155323466057e-01
      1.4948203254594161e-01 3.6613092301052197e-02
      3.0607048104569357e-01 1.4881257482971574e-01
      2.0949132777905771e-01 1.0349207278721986e-01
      2.2088125402429548e-02 1.7983045460711087e-02
      8.1807968672296949e-03 1.1019901157144486e-01
      -2.0130152332268578e-01 -2.2355056032127073e-03
      -8.9226168961247895e-02 8.2841132166771941e-02
      3.5100318548996079e-01 -2.2584069314088842e-01
      3.2781894316302740e-04 1.5720808641056827e-01
      -1.7655022953418067e-01 1.8970035054704859e-01
      1.3978754963784520e-02 2.4381545977087704e-01
      -1.3159441694503496e-02 3.0133997212607976e-02
      6.9517274397227033e-02 -5.2217289580341275e-02
      8.5574396590778229e-02 1.6631532006320495e-03
      2.1263061360507957e-01 1.2456839973018786e-01
      2.4703872190505205e-01 -2.3738596150883576e-01
      -2.5096945536669418e-01 -2.6111621768048456e-02
      -1.7351834450718254e-01 3.2710256391870068e-01
      3.5296727900140074e-01 -1.4846719547542087e-01
      -4.2372975965045395e-03 -2.2310562021829985e-02
      2.2633514463877399e-01 -1.2600869194831651e-01
      1.5555832114557813e-01 -6.8276423515484311e-03
      -7.1035403560559637e-02 -1.4418263652819369e-01
      -2.8220464285164948e-01 1.3950101715571125e-01
      1.2507124021472465e-01 -1.2181533719315110e-01
      -2.2057890371947591e-03 -6.1620169486731144e-02
      6.0333248428938530e-02 -1.7952215732421842e-02
      -2.4369192497695868e-02 -1.2554880041145192e-02
      1.8680184461376692e-01 3.0929482480191794e-01
      3.2562239769775880e-01 -1.5087787898067961e-01
      -2.0480214026218085e-01 -4.1339673311387526e-01
      -7.8033740180424371e-01 2.3275158068870835e-01
      3.5268059904740206e-03 -4.0441025395616080e-02
      -6.2892478496614046e-01 -2.5576149267171211e-01
      1.3518896302910904e-01 -3.1297919007815372e-01
      -1.0817550644872233e-01 3.6854153788740893e-02
      -1.0235327147115290e-01 2.8203798764832277e-01
      5.1012668141622242e-01 -2.9170088108682390e-01
      -2.6850891372177460e-01 -7.4523269269833742e-02
      -1.1278137904081715e-02 3.8854102126175225e-02
      1.4507895036051435e-01 -2.6546668646963454e-02
      -2.1251236415668695e-03 -5.3036726340810358e-02
      -1.4683302680627788e-01 1.7419378927878953e-01
      -2.6732770386618955e-02 -4.0719222154886346e-02
      -2.2870379314711922e-01 -2.4375840357551345e-01
      5.2027785615210577e-02 -2.6615994265042275e-01
      -5.8590961376223029e-02 2.3027990113087760e-01
      -8.8935833177717263e-02 -2.0808513613875584e-01
      -4.4549502127503687e-01 2.6656617880230499e-01
      5.9679764022655062e-02 -1.4178104149995947e-02
      -3.9517766086008960e-01 1.6157509200368289e-01
      3.0790080212440241e-01 -6.9784581780595600e-02
      -2.9709069720672943e-01 -6.1903903560053419e-01
      -3.4667989296298213e-01 -4.5934050112635544e-02
      6.1225417667761399e-02 9.8021466645072297e-01
      6.4231223652231861e-01 -2.5189238384117990e-01
      -6.8424605059861410e-01 8.5247923818368446e-02
      -1.5027709214436633e-01 -1.5398042770826655e-03
      5.7390180136046284e-02 2.7782329091250846e-01
      -8.5665260058686674e-02 -2.8237881913532542e-01
      -7.5269168264961148e-02 -5.6510666470452595e-02
      7.4431914181074768e-02 -5.5884147031729114e-02
      -1.9532344946425237e-02 3.5369615550439115e-01
      8.4537487853140719e-02 -7.8170687642797623e-02
      -2.1607774986672409e-01 8.8537749984111305e-02
      1.3944278877906910e-03 -9.0140124724749235e-02
      -2.0546248707354775e-01 1.3073065204846424e-01
      -1.0039439225513837e-01 -1.9290870232750301e-01
      -2.4253562600881756e-01 -2.6572937436725630e-01
      -3.0166434181976731e-01 -5.5124097546436268e-02
      -3.3252091365929620e-01 5.3982829702318114e-01
      6.2947594889724415e-02 1.8914220289015959e-02
      -1.5726026076563984e-01 2.0194898487579860e-01
      1.7334317065082195e-02 1.4649382830092583e-01
      2.4515531071676377e-01 -4.7861995873815309e-02
      -8.4695397745870649e-01 1.9336982072774400e-01
      3.2875822194012833e-02 -2.2972539828929420e-01
      -6.7371876841525596e-02 -6.6171306878133151e-01
      -1.2591172982481835e-01 1.7489351033098396e-01
      1.3914920441007461e-01 -6.5091077931697294e-01
      3.4610113073436261e-01 -2.5243755499289033e-01
      -4.8963471812957390e-02 3.3230938346239816e-02
      3.0359179636204620e-01 -4.5678941389188432e-02
      -2.2667728808458884e-01 -2.5255677911700730e-01
      1.3641679564616693e-01 8.7307921897741003e-03
      -2.7757335634125781e-02 -8.0969409103500214e-03
      -5.7636838037804929e-02 -1.1850062103645108e-01
      -2.2868402984598428e-03 9.6298301707747155e-02
      3.0160102647228676e-01 -1.7985437011918687e-01
      -2.3555556174045894e-01 -2.1645831577262309e-01
      1.4432702345065240e-01 -1.1556698225344721e-01
      -2.9901783061056403e-01 -2.2295640146123732e-01
      2.9404461613469457e-01 2.8804473263397928e-01
      1.9689844378669885e-01 -1.0207654525231816e-01
      9.6873564264948919e-02 -1.7881373297363082e-01
      -8.8687925476706758e-02 7.4663810582798293e-02
      1.2741300481209963e-01 -8.0458788110012905e-02
      2.4285128493047167e-01 -1.8094242565643834e-01
      -2.6863164592061350e-01 -4.0780661726224465e-02
      2.7641242219739004e-01 5.9391301670394900e-02
      -1.6625134807081374e-01 5.7421966838523226e-03
      6.5589710852802074e-02 -3.9426250694811669e-02
      -3.7859016477577656e-01 -2.3056734422102945e-02
      -3.0236312605811516e-01 4.4092726137429081e-02
      -3.8945937048862234e-01 1.9357892110268832e-01
      3.6621366506198755e-01 6.3108134687968651e-02
      -1.7980923766260315e-01 3.5583914212438583e-01
      1.3360667697991388e-01 -3.2156049647332607e-01
      -2.4689156097614343e-01 1.9687555762382750e-01
      2.9163957240186376e-03 1.5800789254098574e-03
      6.4842410380971938e-01 1.4808140688169377e-01
      -3.0248151139184754e-01 2.5451112921666689e-02
      -3.2375644501443973e-01 1.9753801586796221e-01
      2.3583941504985961e-01 4.7561130414843535e-02
      8.8210186528812698e-02 3.2447962501006711e-01
      1.9502908341947678e-01 2.5361625950447081e-02
      -1.1093498490288448e-01 -3.7959012214706572e-02
      -1.8568230569958230e-01 2.2389675365117163e-03
      2.6810480926945984e-01 4.4159254581795993e-01
      5.7751715937932635e-01 -1.4133412896712802e-01
      3.5168944908211253e-01 2.3950605389643007e-01
      9.4315995870285330e-02 9.1660567298422688e-02
      5.5006168137559028e-02 1.3434268201085614e-01
      3.1350578260814659e-02 2.0143662627057438e-01
      -5.6160038240829109e-03 1.8555530113851201e-01
      -1.5959532136610796e-01 -4.6861579509357501e-03
      5.3863440020578446e-01 4.3177570191953218e-01
      3.3724319355686372e-01 -5.5377051562582547e-01
      1.5516549995403739e-01 -7.4380055856781327e-02
      -1.8303186889658646e-01 1.2244678456067587e-01
      2.4826067851334302e-01 2.2892077173615372e-01
      -2.1407751374715482e-03 2.6065884030287961e-01
      3.6782888402622379e-03 2.5218714406764925e-01
      9.3194474086074799e-02 1.2538894543699136e-01
      2.5116782349364503e-01 1.1284003180328908e-01
      3.9455960213212371e-01 -2.3415677159981860e-01
      1.5041082080981605e-01 -2.4014429656508005e-01
      -1.3875340088796467e-02 1.3731293785298443e-01
      5.4894683758616239e-02 3.3457649046968224e-01
      2.5079304309507309e-02 3.8576102889556729e-01
      1.0430778817257776e-03 1.5152197046413365e-01
      8.7625849203559647e-02 -3.6684207279229414e-02
      3.0376227649953980e-01 3.8873602435985494e-01
      1.2100972413341993e+00 -3.0576374101296339e-01
      9.4127040515552429e-02 -5.7420267934413316e-01
      1.3601937145590143e-01 -8.2319219205825495e-02
      -5.8025903347378865e-02 -9.6916559107597555e-02
      -3.1557512428788892e-01 7.7557796082349278e-02
      3.2753975409568603e-01 9.3977112867326712e-02
      1.0903559806127179e-01 2.2409503649126178e-01
      1.6902694585946143e-01 3.9379196412490924e-01
      3.0539470035695798e-01 -1.2006943286284828e-01
      3.8677894718752331e-01 -9.7716122968349806e-02
      -7.0724786922040150e-02 2.7641968259098715e-01
      1.3755376311694295e-01 -1.0176137923743496e-01
      -2.1278434377141553e-01 -2.5641840709112940e-01
      1.8895436970391373e-02 2.0897317715174790e-01
      1.8639383037705579e-01 -3.3258409595447948e-03
      9.9868577016390209e-02 2.0157396296960126e-01
      -1.7649293174583550e-01 2.1011689935809794e-02
      1.4874247010173741e-01 -7.7940385656589894e-02
      -1.0640657705500275e-01 -9.1649384207162565e-02
      1.3699047190426894e-01 1.4668591236931866e-02
      -1.1336375628912411e-01 -6.2910136438947481e-02
      1.9870455222672959e-01 -3.0030540912608089e-01
      -3.2768682718682642e-02 -3.5820395849929854e-02
      7.8747850043389855e-02 2.7761129158400494e-01
      4.2357043574513042e-01 3.6858839059632248e-02
      -1.6765314550267661e-02 5.0293491655817021e-02
      -1.2130411629599720e-01 8.3831233912350742e-02
      -2.3987620818556130e-01 -4.9860810934767824e-02
      5.0576999730691830e-01 -3.4834621709111568e-01
      4.6309792234895569e-01 -4.8954744708170919e-02
      -2.8533995331993300e-01 4.0668745799410050e-01
      2.6095866492219011e-01 1.7284718688813849e-01
      9.6424173978855152e-02 1.1054239325955088e-01
      1.0290167811370664e-01 -2.2458783683027658e-01
      -1.1380232252248124e-01 -1.2955850692820994e-01
      -2.1480259971088822e-01 -7.1538175190797131e-03
      -2.8121216096837126e-01 1.5476467544371172e-01
      8.4764161612900901e-02 1.8477517916982685e-04
      1.3599596182640653e-01 6.3574827021283392e-02
      8.6030081276546433e-02 -1.1412521522716776e-01
      8.3382194138404364e-02 9.0514859832953667e-03
      1.8621909233780540e-01 -7.6264361248522358e-02
      1.1548242013259646e-01 3.7825733843697404e-02
      2.2454803817106278e-01 6.9323698315555710e-02
      -2.9201724506638110e-01 7.5128389173701987e-02
      -2.6695686142515473e-01 2.3922457428068000e-01
      8.4175978737237089e-02 -1.8148207601172070e-01
      -1.0038913550203155e-01 5.8679018708723246e-02
      2.6481260913910315e-02 -2.5097818429085844e-01
      1.9081101659217189e-01 -2.1143308730528951e-01
      3.5179472041587079e-01 1.9385434828333881e-01
      3.0433156331017475e-01 1.4513742205447475e-01
      7.0951811349631091e-02 -2.0681131488543076e-02
      6.4184135272340459e-03 3.3091984388729606e-01
      5.2270755797988777e-01 8.8334028798872973e-03
      6.4579789025437997e-02 2.4429020551436073e-02
      -3.9525625109299661e-02 -2.3866587932127573e-01
      4.9242619356279388e-01 4.8238977528367429e-02
      8.6342166386050953e-02 3.5760637400170894e-02
      -7.7753682838700336e-02 1.9583323795076135e-01
      2.6825704644440745e-01 -6.3512512550277109e-02
      -9.9385549097717976e-02 3.9653805931998554e-01
      4.9833902062455762e-02 -1.3251201348922234e-03
      -7.1202059862095643e-02 6.2080959517438798e-02
      -3.4839910358624472e-02 -2.0806906989758348e-01
      1.7673185841186848e-01 2.0749947105822820e-03
      1.3956478540163342e-01 -1.9293272444444354e-01
      -6.1113028980647741e-04 2.3422336163053831e-01
      9.9479735638463226e-02 -7.6691429086613860e-02
      -1.4740403768464788e-01 2.0356135213416418e-01
      1.3616789174304275e-01 -3.1714950205142400e-01
      -2.0868140239940006e-01 1.6631136507534947e-01
      1.8311269598823812e-02 -3.9964052182301740e-01
      1.5652674763734967e-01 2.5539429192721008e-01
      -2.7414566662998074e-01 -9.9732523176781732e-02
      6.9872443597025838e-02 -8.9869427316855807e-02
      9.2470240974523166e-02 -8.5444740703385577e-02
      -1.0182462952020926e-01 5.9944814720240311e-02
      3.1575144921787972e-02 2.1523389197470438e-01
      -2.5093726903802654e-02 1.1270047618892060e-01
      -2.9782994179859651e-01 -7.0956730531722106e-02
      2.3176582375768257e-01 -5.3875048907252095e-02
      -5.0120925581064804e-02 -4.5006173702430269e-01
      1.3271186597897611e-02 -3.6705120131656815e-01
      -3.9715258420164967e-01 -2.4129164946181414e-01
      3.0048865257374646e-01 -6.9199875262343036e-01
      -2.3861444059648310e-01 1.2704504593916338e-01
      2.5077558307642850e-01 -3.8783982694110056e-02
      7.2519001433885150e-02 -1.3547685414652380e-01
      1.2385441843371196e-01 5.9172191659453269e-02
      -1.3923114286078181e-01 1.4424805927629972e-01
      3.0828153991077928e-01 -1.0714273487515148e-02
      4.6714279242385698e-01 -4.9753085232132233e-02
      4.5421489017782857e-01 -9.8017172959134383e-02
      -6.7582601629232089e-02 1.8014089332119190e-02
      -4.2269004005204093e-02 3.3333454025054404e-01
      1.1593275862440795e-01 -4.1345609268176131e-01
      -3.0692429158311058e-01 1.2848629596008186e-02
      -1.5946853724148705e-01 1.1982867626533297e-01
      4.9668143296400114e-03 -5.4666279117627614e-02
      4.7174978286700869e-01 -5.4277498562896737e-03
      7.0686096120545258e-02 -2.9274785505587080e-02
      1.3919222219885848e-02 1.4532493258185891e-01
      -3.5650929171429468e-01 -1.8846289649809028e-01
      -3.1464506294476099e-02 8.6959423616190065e-02
      -2.3539461585801369e-01 -7.2517502591372254e-02
      9.4451640893111158e-02 6.9819606571375858e-01
      1.2931434282542495e-02 2.4151445129514637e-01
      -1.3182034066664561e-01 2.5634954439491220e-01
      -8.8827331270064508e-02 -5.0399692371562166e-02
      -1.9530193471550231e-01 1.5116977453650671e-01
      2.1839980434609038e-01 -5.5448027896448253e-02
      4.5738993806995698e-02 -2.9238253436918285e-02
      3.7589766678360331e-01 1.4515396657150748e-01
      1.2459708277303064e-01 4.2243479582798393e-02
      2.0278552672535863e-01 1.8365822788189094e-02
      -2.3957355982365194e-01 1.9827179427339928e-01
      -3.3662560282828363e-01 1.0193510855429003e-01
      5.3564868939272081e-01 -1.1932316810441992e-01
      5.4796597777149167e-02 9.5801890302006115e-02
      -7.5110028569310386e-02 -5.0505018426081894e-01
      3.7188299584544215e-01 -2.9329997371185839e-02
      8.1498464193733897e-02 9.3350852273559812e-02
      -7.5630460716216610e-02 5.3317467617095299e-02
      1.4850498592887654e-02 1.9030891679433292e-02
      -5.6223011522102406e-01 1.8693394222088142e-01
      4.8754308477680247e-01 3.5126155780007308e-02
      6.4759519509272126e-02 -2.1566486646705900e-02
      -6.1948388125781422e-04 -1.7365263806764730e-01
      3.0485616320633898e-02 2.3381286073301918e-01
      5.2987841639309075e-01 7.8590242891439455e-02
      1.3433133640028649e-01 1.8726002256219826e-01
      -6.4860317600243256e-01 -2.6517938606327379e-02
      -2.1786581717146047e-01 1.8008062184825119e-01
      5.9990546423366020e-01 -1.1292486591020346e-02
      -9.6197827993686258e-02 -5.5670402104677524e-02
      3.0838309729399549e-02 3.6162305098258629e-02
      -1.3596813179949643e-02 -8.9300174442326269e-02
      -5.9269824289897577e-02 1.6947406183591618e-01
      -1.9081657046406894e-01 -2.8818168959199936e-01
      4.7632175409901396e-02 1.8146267737789063e-02
      1.5929211904104881e-01 -1.5811019928331251e-02
      1.7171507513062639e-01 -2.0786695937630793e-02
      -1.0369100324720229e-01 -1.0203645191162430e-01
      -1.9034651562287513e-01 8.4358795945963105e-01
      -1.1045957916137340e-02 -7.3427645836755473e-01
      -2.9975970834909532e-01 2.8950041317836112e-01
      5.6575861428951146e-01 -2.3673671412881916e-01
      -2.0616120031870167e-01 1.5635110338402591e-01
      1.9385129494658077e-01 -7.4513100091669324e-02
      5.5283963377207840e-02 6.9546075361048809e-01
      3.8318918762844234e-01 -4.5786409410455298e-01
      -3.9234460968311330e-01 5.9062702727967187e-01
      4.3490694508185532e-02 -1.4957042998943576e-01
      -3.6879711953841682e-01 1.8554012700232098e-01
      1.0520702646821820e-01 -2.0509294273449302e-01
      -2.0023483082874657e-02 -2.5811415685289973e-01
      9.7256674867792703e-01 -1.8424359982325683e-01
      7.2355158246941706e-02 3.6713197434897371e-02
      9.9464031416838294e-02 -2.7796498585360330e-01
      -3.1814697815757942e-01 1.0884416687676994e-02
      6.7402106469177672e-02 3.6732990349702108e-02
      -1.3989882520587127e-01 -7.1731217239345738e-02
      8.9364336768959579e-02 -5.9399272612975146e-02
      2.1035909266615024e-01 -6.2762635011242940e-01
      1.1089063988555967e+00 -2.4051146177496979e-01
      -5.3730108232484297e-01 6.0897092179845277e-02
      7.5022300384591803e-02 -1.1365244808657540e-01
      1.5469917450459059e-02 -1.0858554241174405e-03
      6.0929693124749926e-02 5.7783514004150341e-02
      -1.1155141884081510e-01 -3.1880161202469184e-02
      -2.7960185070438387e-01 -2.1957984605566711e-02
      2.1217925492786111e-01 -2.2306397704265207e-01
      7.7904089515868691e-01 -6.7046006996241225e-01
      -3.4832582723780736e-01 1.1588576924128233e-01
      -1.9890972317696036e-02 2.4603527823590723e-01
      1.5501703833438504e-01 1.2125941869519150e-01
      -9.4511645214627835e-02 -7.9988591549854503e-03
      -8.3855157539940689e-02 2.0087428128784154e-02
      -5.5674629911442043e-02 2.2772942326324215e-02
      9.6419245663188588e-02 -1.6346078534905596e-02
      1.2530600438960307e-02 1.2017503260682083e-01
      4.6233698408000168e-01 1.2554612616002483e-01
      -2.5869094523130631e-01 -1.3615805816403156e-01
      3.5386505269963064e-02 7.8669296653992804e-02
      -1.3005339361303248e-01 -2.5279686164820542e-01
      -9.2877547988689135e-02 1.9793247080819948e-01
      2.3882689429250809e-01 -8.0475280931660287e-02
      -2.1591774274161615e-01 1.8676512491588204e-01
      1.0998812427426516e-02 -8.0234299478284914e-04
      3.7669854165029221e-01 1.9007828824144651e-01
      -9.7631459647621988e-02 3.4086810416865032e-01
      2.8571918230413423e-01 1.2749657048106653e-02
      -4.7115241314795199e-02 -1.5278671658442836e-02
      1.3992166664782918e-01 4.7197454302591285e-02
      6.6210582250210048e-01 9.0639333646086902e-03
      -8.6836624588551192e-01 3.0330401321329736e-01
      -7.1348607763913774e-01 3.9269303296425181e-02
      -1.1268515427435941e-01 -9.1698611151987769e-02
      -9.4029735716561286e-02 -1.6436242079430258e-02
      -3.7494910368084344e-01 -3.9394643616737585e-01
      2.6199553254325259e-01 7.8954769586171078e-02
      7.8690776248937611e-02 3.1026312593832078e-02
      2.0356705604452544e-01 -5.1833793925552880e-02
      -8.3581063977825575e-04 -3.4413099165516397e-03
      -8.4504819009840304e-02 3.7750996349094415e-02
      5.3809085110428298e-02 -1.6469133212705208e-02
      -1.7733397908221030e-01 8.3876753622692292e-03
      -4.8687098945525552e-02 -6.2600698489584203e-02
      1.1853202843185474e-01 -6.0792961787645506e-03
      4.9295723782396195e-01 -1.3497141796094295e-02
      -2.7717266527804308e-02 -5.8783106580063735e-06
      -2.1640604072940141e-02 1.4379720202900825e-01
      -1.4717166631587797e-01 2.5119694406609333e-01
      -7.6966140442086356e-02 2.0728994075647933e-01
      -1.7001792455313344e-04 2.2457322776306235e-01
      1.1792514474954459e-01 -1.9039956281691942e-01
      1.1453755761097111e-01 9.7058725470590745e-02
      2.3080307439061978e-01 8.3404884991608308e-02
      2.1108032439169960e-01 -2.1381533509843914e-01
      -1.0705615379548829e-01 7.9443253889199775e-02
      -5.7751576149271877e-01 2.0309832633951250e-01
      -9.0340885489324549e-02 9.4921485489974939e-03
      -1.1476797853927219e-01 -8.2732154339765190e-02
      1.7444379535242339e-02 -4.4673749691461451e-01
      3.6119464036324787e-02 -1.0381768577299680e-01
      -1.9381815266775095e-02 -8.6003269904880941e-02
      1.7854796366997661e-01 -2.1409093290049558e-01
      -1.7256296054850984e-01 -5.9798310058800275e-01
      7.9482598893776055e-02 -8.9460882117204626e-02
      3.0690347619326558e-01 -1.5455813927154297e-01
      9.5196001848825512e-02 1.2188366228874814e-01
      3.8128880671616669e-02 -1.5723315496225371e-01
      1.3160290027262034e-01 8.4765430447268933e-02
      6.3192072660921056e-02 9.1712105358657363e-03
      -4.0890458306277036e-02 1.0571828752212020e-02
      3.7332886876322913e-01 -2.5220596441753568e-01
      3.2326989963210886e-02 -1.1271443764138468e-01
      -1.4308693354250096e-01 -1.0536977812276545e-01
      9.1325400196523104e-02 9.7128705591133346e-02
      -1.3657566487445033e-01 6.4489501045487563e-02
      6.3936832521756290e-02 1.9340968281637652e-01
      -8.7848333628243735e-02 6.2472547987526231e-02
      -2.3877358769121870e-01 6.5113823926615674e-02
      3.9532134880045716e-01 -6.6654553694403072e-03
      8.9333151654114692e-02 3.4446102877050638e-01
      -3.2999848585406028e-01 1.8495102007737974e-01
      2.0827240184295115e-01 -4.0378303027790885e-02
      3.1365069686170893e-02 -1.9438401347825197e-02
      6.6702816412984353e-02 6.3020132293389292e-02
      3.3031224691877753e-01 4.2517646681742410e-01
      -2.7681482525954493e-01 2.0321721102121001e-01
      1.0518186593224449e-01 3.4973357403557787e-01
      3.7630285992143235e-02 -3.1328823941169837e-01
      -6.0146188889698082e-01 -2.5254362511730000e-01
      2.3618285758044785e-01 1.0396473201508356e-01
      1.8067922532436259e-01 -5.0019646573538371e-02
      3.0361139590791236e-01 2.8621502967765439e-01
      1.6043897287500092e-01 -5.3030324602067483e-02
      3.1116854760412238e-01 6.3063519870108871e-03
      -2.8259283240486743e-01 2.8934460503810067e-01
      -1.7215961629926910e-01 5.2170945919524259e-01
      2.9709435144672258e-01 8.8280572137411556e-02
      -3.7622480468785441e-02 1.4459694880430027e-01
      -1.7591376384377570e-02 -3.1254235628752575e-01
      -7.7728054177901747e-04 -1.6864906627376736e-01
      1.2892032911652915e-01 3.7675290035061329e-02
      6.8507761410609895e-04 -2.6264868226013221e-03
      -5.0015508542676179e-01 1.9208100037768944e-01
      -1.7942640181448960e-01 1.6026646873078543e-01
      5.4195341704555955e-01 -5.6863602911958869e-02
      6.6281338244264298e-02 3.6827341621279974e-01
      -1.8346302249505675e-01 2.4279150906026103e-01
      -1.5776669606598717e-01 -2.5025769734305259e-01
      -1.7084017938111518e-01 2.3800212578694812e-02
      2.6593427053236601e-01 -9.6280990928928958e-02
      -4.4299529223828610e-01 2.4297024113270348e-02
      -2.5106533087650117e-03 2.4007276601775737e-03
      2.0936669189656722e-02 -1.6827554174928274e-03
      -3.4367048071995671e-01 2.2552943191645178e-02
      -2.4380780702260715e-01 -5.7308069967263855e-02
      -8.7598503453287874e-02 -3.0479424732401488e-02
      -1.9730975145009870e-03 4.6696372725981164e-02
      4.2087234376388655e-01 -3.6470038869339548e-02
      -1.3962459371143904e-01 9.5791713124472308e-02
      -5.4975703864244574e-01 1.9230641174727181e-01
      2.9664261076577453e-01 -4.4308303224813031e-03
      -3.5768715253885119e-01 -3.2989122007962834e-01
      -1.2039785042717069e-01 -4.0154084099420964e-02
      1.2008168342898543e-01 -1.0507481962264612e-01
      1.5760924289647693e-01 -6.6000564111372388e-03
      -9.4561216699587614e-02 2.3238513535078720e-02
      1.8666703991202113e-02 -2.0208306417523702e-02
      -3.0242846881715235e-01 1.0343570462153699e-01
      -1.1360659818078646e-01 -3.0023130509675252e-02
      -3.7341476177910959e-01 3.6687345437632296e-01
      -2.7202800610777383e-01 6.9102239980892238e-02
      9.0636817667018671e-02 1.2517213316987941e-01
      -1.0111710843720648e-01 -1.2225062555240478e-01
      1.8816924362860862e-02 -2.9398969389614638e-01
      1.8431014481596786e-01 -2.5195620333789742e-01
      -1.5087971010982699e-02 -1.4411689018290945e-02
      -1.8822046227410177e-01 -1.9010297346488630e-01
      2.9507400923289288e-02 -3.0625403841556254e-01
      -4.9506426876142950e-01 6.0729371496547328e-02
      1.0783230249423188e-01 1.6408714824960077e-01
      7.5011545436393864e-02 4.6342710458475524e-02
      5.3189387593026757e-02 -1.1435393698347857e-02
      7.3404021270899145e-01 -2.0418944284729686e-02
      4.3712469602936781e-02 1.5759347373604363e-02
      -2.1637312355814921e-02 1.6660433086862114e-03
      -4.6745823234029801e-02 -3.7569684974830340e-02
      -6.3350760190464483e-02 1.6809590174986769e-01
      6.4498479876403919e-02 1.9884387837616990e-02
      1.8066018800817871e-01 1.1665676420698734e-01
      -1.5301708882235192e-02 -2.7836903870470820e-02
      6.5068719844323253e-01 -5.8904592692301944e-03
      -3.4777518318434830e-01 -3.9237209266513064e-02
      -1.5106615508160817e-01 2.2228709959805848e-01
      -1.3125877067210248e-01 4.7375236118980119e-01
      -2.7733618547581862e-01 4.5957375716376279e-02
      -2.7770749183650290e-01 -7.5160171906496306e-02
      6.9156707956020122e-02 3.8692030127787758e-01
      -7.8427828979513170e-02 -5.5731428172760877e-01
      5.9435588447348704e-02 2.7165310232730461e-01
      1.8666715495931002e-01 1.4815443408025214e-01
      -2.2920731169851671e-01 -1.6734868869042602e-01
      2.0960910089439394e-01 1.3840757207525831e-01
      -5.5214872105953357e-03 -3.0163210975325077e-02
      3.4388024153038121e-01 1.9749685476379059e-01
      3.3298975562616336e-03 -7.0057010177505763e-02
      -3.0960196636418413e-01 9.0350965169926134e-02
      -1.6434413453630228e-01 3.8322856753326390e-02
      -1.2400361046700660e-01 3.6832777477197448e-01
      -1.3556039523086724e-01 1.4131528407688391e-03
      -5.4502974706718083e-02 2.6284129975330239e-01
      -2.6117554830665063e-01 2.5022314377473036e-02
      2.2557558832871867e-02 -8.4012154766106989e-03
      -6.9993925555050254e-02 1.0042583034456100e-02
      3.5050475248916302e-02 4.8895110146281742e-02
      -2.3782066000409743e-02 7.1776461368774455e-02
      1.9192897710373885e-01 1.4740819951952769e-01
      -1.8138824133192688e-01 -2.0032293097399650e-01
      -1.9286447367510884e-01 -2.6859326636467892e-02
      7.1460980102666036e-03 -5.1981331796931755e-02
      5.0484486225084418e-02 -3.8899304273371474e-02
      -1.4791545973700243e-01 -7.9593648813064050e-02
      1.2698176230727731e-01 -1.9690149086146547e-01
      -2.8635051129665701e-01 4.3978274033061693e-01
      2.7137884107123467e-01 -1.0520431176489546e-01
      -2.0384403528099945e-01 -2.6636222028656520e-01
      -9.8121944021589941e-02 2.6939672032470253e-04
      -2.2391612667187127e-02 2.3121882813154152e-01
      3.1147147354314597e-01 -1.8518790020339601e-01
      -5.8772679793803195e-01 1.8905009366145339e-01
      5.1359120521226209e-01 -4.7634121157332721e-01
      -3.2045057958878387e-01 4.8633549831098977e-01
      7.2807702479454495e-01 -3.2422339550782758e-01
      1.3418564338788741e-01 -3.3533954039225483e-01
      3.1116596842122335e-01 5.4565873264128054e-02
      -1.5275093406161966e-01 1.6872106688511732e-02
      1.5311224406203097e-01 -3.5759535079252930e-01
      -6.7491362328490012e-01 2.2772842695755666e-01
      -2.0357112391067606e-02 -3.5225189569079057e-01
      -6.9988896514354770e-01 3.3298707363600083e-01
      8.8116904571214474e-02 1.7451100682913592e-01
      5.6586557470384602e-02 -5.4964253682577302e-01
      7.8267027349118640e-02 -1.4423665711561270e-02
      -8.6622194854754953e-01 1.8733749764143340e-02
      5.3712388440040351e-02 -6.1243891525320138e-01
      -2.9869970678919854e-02 -5.5889857021235508e-02
      1.0118249265092324e-01 -2.0406370263034340e-01
      -4.0924420951058776e-01 -2.4233401994551682e-02
      -7.6355786944706433e-02 -2.2601337643017955e-01
      7.3749117848214876e-02 6.8280417163871301e-03
      -3.0858834874417842e-02 -4.4583394246154190e-01
      -3.3529467474946995e-01 1.6234893807548162e-01
      1.5853130506451857e-01 1.3182642538704861e-01
      1.8125359045798847e-01 3.7235826124689710e-02
      -3.2508695345675090e-02 3.2034015276515046e-02
      4.7672703522296050e-02 1.8435681866592567e-02
      8.1084341730850357e-02 1.2088972898451746e+00
      -6.3993934423311027e-02 3.6443620270098226e-01
      -4.0251445014258050e-02 -2.7593264523675966e-02
      -4.7018233315864844e-01 3.6903118866928453e-01
      1.0640892751044424e-01 1.5576953507626659e-02
      -1.3456409725414172e-02 1.8382145097819919e-01
      -1.3058713498997843e-01 6.1594260350237004e-02
      3.3194267489803397e-01 3.2037017423615954e-01
      -1.7779671868839372e-01 1.4601702459845581e-01
      9.9490986575212950e-02 3.2410744753865994e-01
      -1.7724570136666296e-01 -1.8045524891005496e-01
      -4.4989027745444576e-01 6.8371459363279180e-02
      -3.3704765095639466e-01 -4.5519382364464228e-01
      -3.2321235758368999e-01 -8.1580879142482743e-02
      -2.0583014284266479e-01 -3.5084282716649523e-01
      -6.5518357457927001e-01 2.4210707027427378e-01
      6.6460190889454951e-01 9.9795799677764360e-03
      -9.1671971245749134e-02 -6.5156188238765886e-02
      5.1779511762229696e-02 -4.6771400347699103e-02
      7.4593254830898237e-01 8.6935212504862427e-02
      4.0689096556735742e-02 -1.3440251588706301e-01
      -1.9806865567247736e-01 -2.1725590211194440e-01
      -2.7562749665648839e-01 2.1955977229331972e-02
      -3.0655314442225701e-01 3.5150951986886131e-01
      2.8324866975579288e-01 2.2460651085099963e-02
      -2.1940774520817941e-01 -4.7602529372511676e-01
      -1.3371403894386277e-01 5.6223249962008892e-02
      1.6438967157387974e-01 6.8179934785527641e-02
      -5.9934018965185833e-02 -2.2737940965776690e-01
      -1.8161712497354396e-01 -3.7546065266288531e-01
      1.8758378358260178e-01 -6.7623732724440899e-01
      -4.7552777366349563e-01 4.5178489976793734e-01
      1.8826014248321976e-01 -4.3794151071915380e-02
      -6.6411678827780196e-01 -2.2027892433077542e-01
      -1.4899866873867743e-01 -3.0958338921695566e-01
      1.6806043237042996e-02 -1.3171851743230173e-01
      -8.0396743885493782e-02 -4.8339043875151935e-02
      -1.8635099141932487e-01 -3.9303914669150736e-01
      -3.3800428988569198e-01 -5.1311009133831853e-01
      -9.0672838349685134e-02 -7.3329649991242152e-01
      9.7776321540301553e-02 -3.5772492019802021e-01
      -6.6649883977405666e-01 -3.8764317892155742e-01
      -2.3216580071111101e-01 -4.6159510294608672e-02
      2.2286272451813177e-01 -5.9486897458915187e-02
      1.4984670871561345e-01 7.8976166527797015e-02
      -1.6286860744456078e-01 -1.8084436829816619e-01
      -4.4592923788802552e-01 -5.1808966289562136e-02
      3.3060732537314069e-01 -6.5843155965672404e-02
      -4.1985633231435748e-01 -1.7105726492527284e-01
      -8.4117279463687314e-02 -3.0879089117754377e-01
      5.4049751769515750e-02 7.6911702615622982e-02
      1.3081261706112929e-01 -2.3614900452828910e-01
      6.1422593882216846e-02 2.1444216079593120e-01
      1.8501116932644962e-01 4.9871524548589846e-01
      1.5264108136111862e-01 8.3919890244449125e-02
      5.8643375538465381e-01 4.2296054389725024e-01
      -1.5615515639996244e-01 3.4736437395167369e-01
      -4.1195715748238285e-02 3.0266424778403556e-01
      3.8531179173106289e-01 3.6417551166292950e-01
      1.3542226207078836e-01 -1.7122092470857961e-01
      -1.4946158211730726e-01 -5.9379824727254331e-02
      5.0577242707683254e-02 6.3005975532633832e-02
      -3.8642491266883246e-02 -1.9483201071899398e-01
      -4.8945063692645607e-01 3.5969198756582435e-03
      8.4702278682291160e-02 7.9329038164861355e-03
      -8.9681540696713177e-02 2.1434697522737126e-01
      2.4322811135842948e-02 -9.2455306114790095e-02
      -4.8498179077930231e-01 1.6862998944201599e-01
      1.1895937730910131e-01 2.0101102607060894e-02
      1.4408239972922027e-01 -1.3905476499953440e-01
      -1.3990483625021265e-02 2.6158058333914734e-02
      3.6401218298714705e-01 -2.5436796746839613e-01
      -3.4846043770043189e-01 1.9088595720661311e-01
      -5.3795151261127876e-02 -8.0861852294570213e-02
      -2.3146141611424798e-01 1.1311610441509229e-01
      4.8518721421530110e-02 -9.1097834344699063e-02
      9.1752027146883061e-02 5.6576835010761987e-02
      5.7746024327812606e-01 -1.8189761083364445e-01
      -8.6988044520520580e-01 2.1561941119559558e-01
      3.8817303704225237e-01 -1.9208585772570022e-01
      -7.8631369050569411e-01 2.9811718064177545e-01
      -2.0727623037892529e-01 -2.2086183127109964e-02
      -4.2419036808177579e-01 1.0930567682671746e-01
      4.3707104162271687e-01 5.6744151859804393e-01
      -2.9271575715356934e-01 -6.8013904488271451e-02
      3.3980188579985041e-02 3.3459144040153677e-01
      -1.5529150724458754e-01 -4.9549306688391012e-02
      4.3809884656041374e-02 1.0054262880856881e+00
      -4.2931072199396389e-02 3.2375856863886188e-01
      -6.2943438251645978e-01 -1.5994251051205705e-01
      4.0853285207624795e-01 -4.5668734122708401e-02
      1.6074706559606566e-01 -1.2516016634001353e-01
      4.2902910197961203e-01 8.1538275228760105e-03
      -1.1085653698789583e-01 4.4787659135194557e-02
      -7.0697595625670226e-02 -2.9483180406689191e-01
      -2.5099834975344021e-01 3.5897380757258202e-01
      1.1270788511235534e-01 -2.7981868956951428e-01
      -2.5481987010464419e-01 -3.0904944125376754e-01
      2.0480330559998813e-01 3.6347758000102454e-02
      4.3287890080980207e-01 5.0867921626009491e-02
      -4.3314830918810790e-02 6.4400973794855850e-03
      -1.9962707034958869e-02 6.0109376387262707e-02
      -2.2258728939719699e-01 -5.5503960901710468e-02
      -1.1034766912976396e-01 -8.8961546530178775e-03
      3.0370946268257273e-02 -1.7058931206245515e-01
      1.1785063253797137e-01 1.4233450372569534e-01
      4.9639012715011060e-02 -2.0744700047596415e-01
      -2.3527082069240479e-01 2.6410314628534004e-01
      -9.6359716831956238e-02 -1.9600549490568744e-02
      1.5134325544565908e-01 -6.2895642618010283e-02
      -1.3926431112326068e-02 -1.0951827462526532e-01
      -6.4667128530230447e-02 -1.1873955031949081e-02
      3.3441954155702766e-02 1.2026592064803961e-01
      1.0685579839233049e-01 1.2869317408931352e-01
      5.6283646542051452e-02 -5.4174214239380264e-02
      -7.2581760183483846e-01 -1.2086444987410636e-01
      -1.8475998461841704e-02 1.0242176638661744e-01
      1.0533672671084886e-01 2.1356894657302006e-01
      1.9882362605088788e-01 1.2388798054089800e-01
      6.4456538796211410e-02 -5.4571620760361844e-02
      -3.6359730695519607e-02 -5.6854508003316102e-02
      -4.1210445450808849e-03 -8.5700672091747337e-02
      -1.2573212470094053e-01 2.8400451086635657e-02
      -9.0185852186975404e-02 -3.1733992317712056e-01
      -1.1269483947479332e-01 -1.6809122996008188e-02
      5.3321452268005554e-01 1.5969295613911267e-02
      1.2595739428644898e-01 6.9436717316081503e-02
      3.1003160701565113e-01 1.7530664259271944e-01
      -1.0788461572473566e-01 3.3007373804285606e-01
      -6.2150260552882342e-01 7.9889466812222490e-02
      -4.8157343291393301e-01 4.5789207872876686e-02
      -2.5779472297127043e-01 -3.6245855849687321e-02
      1.9367617883489271e-02 1.4569188174008887e-01
      -4.6229137613266233e-02 -1.6346845926711576e-01
      -3.0134288263861492e-01 -4.9691001898406030e-03
      1.0359951533921559e-01 -2.6438160015730805e-01
      -2.8079373937257079e-01 4.1427422737495462e-01
      1.2711380605552697e-01 -1.9629463230642297e-02
      -7.0838753491942699e-02 -3.0823740950124301e-01
      -1.8437844231222100e-01 -5.4244039026256560e-02
      6.0652494443470290e-02 -7.8133668047845068e-03
      -4.7008357409602630e-02 -4.8749695654173714e-01
      9.0431423950161127e-02 -2.7317468391628652e-01
      1.7354452046482434e-03 -2.5146728371468768e-01
      2.3013865797989183e-02 -6.7731866956914438e-02
      -6.7160438769817393e-02 -1.0684767428070208e-01
      -5.2530429444470295e-01 -1.1036495146957749e-01
      -9.5356920618356114e-02 6.5786716088490460e-02
      1.1020606832210617e-01 -2.6148995977071848e-01
      1.4218190162877772e-01 -2.4784813652729998e-01
      -1.5345777787424361e-01 6.6778983495948407e-02
      3.5665053564876575e-01 -2.4736285091885910e-01
      -3.8797171553385176e-02 8.1089766437088373e-02
      -9.2583397806371315e-02 -1.6261562046734401e-01
      -3.0043152975228082e-01 -2.0063230134398938e-02
      4.8326482431474505e-01 1.6379564603152572e-01
      -5.6228452452398159e-02 -2.6752790409500143e-01
      -4.7458636032655116e-01 9.5178929447568297e-02
      1.1802821242216545e-02 -5.0263481444999125e-01
      -3.0874799320265770e-02 3.4587550775693879e-02
      -2.0348271101634813e-01 1.5853332539369677e-01
      -3.9277794637322859e-02 -3.1054314262060668e-02
      -9.9210713304934930e-02 -2.7265310956287880e-01
      -7.4726726931237816e-02 1.0854798231473176e-01
      1.9411746392559556e-01 -1.3470209456844104e-01
      -2.3476190737837432e-01 -2.0031084444662439e-01
      -8.9051546416020810e-02 -7.7512443742151771e-01
      -1.8148515092136361e-01 1.9723577392573532e-01
      4.5900527172888228e-01 1.5055230652132570e-01
      -1.8980538719478704e-01 -6.4855154996408884e-05
      1.2922628825869900e-02 -8.3626942627445133e-02
      -5.4018106509072863e-02 1.6521549280495265e-01
      -1.1187684824192384e-01 5.1711105810345555e-02
      -3.4672830855032949e-01 -4.5814950587221670e-01
      -1.4740465751505433e-01 -6.3058670264645744e-01
      -1.5226424518440873e-01 2.5622921272550325e-01
      4.6914748206109363e-01 1.2296956220002031e-01
      -5.1241370985284396e-01 -2.3140782760711595e-01
      -1.4969856167738877e-02 -4.5291504134247551e-01
      -1.0526904876501778e-01 -3.6003878063615869e-03
      2.7603867912045932e-01 -1.6774713066167041e-01
      9.8323988229650564e-02 -1.6275124833024607e-01
      -9.7783860764925651e-02 -1.4033945937784029e-01
      1.1035213598802564e-01 2.3572718976324621e-02
      1.6105114079361865e-01 2.0708248623031850e-01
      -6.1046347311610086e-02 -3.8060014775543871e-01
      2.0353393950538323e-01 9.7432623830290867e-03
      4.9420447756845448e-01 -1.4641107933432529e-01
      1.8300832379125395e-01 8.1202285369832827e-03
      -2.1892589083859840e-01 3.8010543574898820e-01
      -1.8517254039306497e-01 -2.8172503766041680e-02
      5.8598426896206424e-02 2.9699781269970232e-01
      2.8647321348246874e-01 -2.7556514960013520e-05
      -7.0669495656963982e-02 -8.5039824230490904e-02
      5.2238587922149693e-01 7.6165055031329421e-02
      3.1066335072858187e-01 -1.5720938386031841e-01
      -1.8316689663935021e-01 -1.4086026797702658e-01
      2.7856326095783401e-01 7.8313200689466164e-02
      8.6860211869685858e-02 1.3047189867575568e-01
      1.6914940244434823e-01 1.1959762242279870e-01
      -2.1003550025141583e-02 3.6340391285977977e-03
      2.9024387488089099e-02 -5.1510207446995977e-02
      -3.8813818873521616e-02 9.1645859038295696e-02
      3.9090854756123949e-01 -1.3265658186709500e-01
      1.3672572574073510e-01 -4.8512014913026542e-02
      -1.2793996704897409e-01 -4.8322046236018684e-02
      1.4684819348057973e-02 -2.7009396519621109e-01
      -2.2272006257399843e-01 -1.9538075632395127e-01
      2.0074637632633296e-01 -2.9808068979904890e-02
      -1.0430742220879179e-02 -1.4382385103478493e-01
      9.7495711283907105e-02 5.6243487566662620e-01
      3.9149445903535708e-04 -6.5865008017181842e-02
      1.3318904443811777e-01 -3.4642893056559088e-01
      -2.0019193143860717e-01 -1.5280624096938741e-01
      2.8738784797057054e-01 -1.6280071294058976e-01
      6.1678300417343209e-03 1.1239413200101561e-02
      3.7780820443525390e-02 -1.8098197418562767e-01
      1.5883414384481401e-01 7.8351961611050555e-02
      8.5020996265037285e-02 4.6923944212975785e-02
      -2.6064613994008962e-01 6.4781572207183599e-02
      1.2419830860720135e-01 1.1886655173816026e-03
      9.4134200880110055e-02 -5.7001627288150514e-01
      -3.2361267389210902e-01 -5.1503645166658563e-02
      -1.1665999751395587e-01 -2.5506123506247197e-01
      2.6868458059563310e-01 3.5569746653026724e-03
      -2.3562019159471259e-01 -2.0545091056444265e-01
      -4.0812621973484048e-01 -1.0258955543232597e-01
      3.1066262778564828e-02 1.6496673811415057e-02
      -1.7120664764481247e-01 -2.2784575829282733e-01
      2.0852811448227657e-01 -6.4580304229049590e-02
      1.7225648287734063e-01 -2.9384931947632975e-02
      -2.3935561535542804e-01 1.0099979493939606e-01
      1.5586072267076848e-01 -1.6954195778117714e-02
      -1.8782246810387879e-01 -1.4540494633944051e-01
      -9.2001569270166089e-02 -1.0865093195416219e-01
      1.3329049659079106e-01 -1.6218525101228459e-01
      2.5785027431500440e-01 -1.6921938520348481e-01
      -3.9929024632733415e-02 3.3438458422757292e-02
      -1.2418293917251580e-01 6.9701005323377585e-02
      -2.2357953818925594e-01 2.4419959128503088e-01
      -3.7642018903334229e-01 -1.2945404819236533e-01
      -2.9750755841424487e-01 -5.5286253859793077e-02
      4.1999744670056044e-02 -1.8047581424120208e-02
      -5.7857674552010407e-02 -3.2634107395787826e-01
      2.0307472843926369e-01 -1.0247320733968446e-01
      1.9173911760900278e-01 -2.1165455157367030e-01
      -1.4155831834054100e-01 2.2938504765522866e-01
      1.4585419057783561e-01 2.2391873784387584e-01
      -1.1164611440995324e-01 1.4110553539554405e-01
      -1.0237888870907470e-01 -2.1753615239396600e-02
      5.4893519391287234e-02 2.4204987569464623e-01
      9.2850893685756566e-02 -6.9240681207150975e-02
      -1.7226587140804325e-01 4.4845473286909472e-02
      4.0640451820246520e-01 6.4383417290280742e-02
      -5.4939305097026846e-02 5.4769186520767692e-03
      2.2434406985626304e-01 1.8729931469927880e-01
      2.6383130614739003e-01 -4.1369513808242594e-02
      3.7338557260584093e-01 8.4779469172306512e-02
      -6.4482135013832473e-02 1.6637673017464297e-01
      1.0462165280847441e-01 -2.5071255723359215e-01
      -1.2570435640367586e-01 -8.4397139561846538e-02
      3.5696795980901852e-01 5.7838117570433320e-02
      -8.5063705453666694e-03 1.6452865118774562e-01
      3.5496359684606210e-01 1.4367011520853890e-01
      3.9263755919290454e-02 -4.3672623241798103e-02
      -2.1879696654699154e-01 4.5473661235204976e-01
      2.4025369314779978e-02 3.7256816494788131e-01
      3.4222426353883528e-01 -5.4124837617312641e-02
      -1.5410841643184198e-01 -3.6549327660436759e-01
      1.2666476704885160e-01 9.0940885523901019e-02
      -5.5067388159024497e-02 1.1228533129258150e-01
      7.0007005611766426e-01 4.1878945716023042e-01
      1.1563752448423098e-01 6.2034680260464534e-02
      -2.0214498914313711e-01 2.1983211474141642e-01
      1.9067975592731023e-01 3.7208091315219077e-01
      1.4166557775559596e-01 -1.3258969317355698e-01
      -4.3470818231313831e-02 -3.1718666321309746e-01
      -5.1209873790504803e-02 -6.2164715327748712e-02
      -5.3972675363343742e-02 -1.1494662447092817e-01
      1.8269395332924765e-02 -4.0521368062877289e-02
      1.8068490776231583e-01 -2.9770156742351028e-01
      -2.4026747878831256e-01 -4.0636412016583703e-03
      -4.8821156152273740e-02 -9.5108467842144953e-02
      3.2258119895339510e-01 2.5120180682369053e-01
      1.3354633244706374e-01 -1.1532416931251696e-01
      8.1983438500005529e-02 -1.5797759942503034e-01
      -1.0287826741478722e-02 -1.2237786420222969e-01
      -4.1129421246919852e-02 -2.6046196231219021e-01
      2.2911608568135261e-02 -2.0065505850803919e-01
      -9.9051973884713831e-02 -9.1824358324805955e-02
      -2.7293918364626624e-01 -3.4058365262591150e-01
      -3.7031638467396477e-01 4.6448066932880844e-01
      -2.1151554726649260e-01 3.5674676614386343e-02
      2.4277091922845875e-01 -1.2468922996845554e-01
      -3.0778991183819343e-01 1.6787775649186553e-02
      -3.4306159607665865e-02 -3.7067139574556218e-01
      -3.0891764329788168e-01 5.3834949012389419e-03
      -1.6359894160496058e-01 -1.4364147527653351e-01
      -4.0253914718168410e-01 -1.3743991607874533e-03
      -3.8877591308965304e-01 3.4212145459887433e-01
      -4.0006124857438286e-01 3.5812114456176419e-01
      -2.1292925306826488e-01 1.2559412579266416e-01
      8.7457420713604142e-02 4.1299502897640616e-01
      -9.3576645232004464e-03 -9.7867507058238740e-02
      9.0031762013063940e-02 4.9998723269092084e-02
      -1.6280352821258587e-01 -3.5980148322962437e-03
      -1.9919943659206424e-01 4.4271666673648746e-01
      -1.0905616345339708e-01 -4.0139659102180487e-02
      2.2168911700418423e-01 -1.1369834184281526e-01
      4.2359979264406672e-01 1.9614504659229234e-01
